{"learner":{"attributes":{},"feature_names":["day_of_week","hour_of_day"],"feature_types":[],"gradient_booster":{"model":{"cats":{"enc":[],"feature_segments":[],"sorted_idx":[]},"gbtree_model_param":{"num_parallel_tree":"1","num_trees":"50"},"iteration_indptr":[0,1,2,3,4,5,6,7,8,9,10,11,12,13,14,15,16,17,18,19,20,21,22,23,24,25,26,27,28,29,30,31,32,33,34,35,36,37,38,39,40,41,42,43,44,45,46,47,48,49,50],"tree_info":[0,0,0,0,0,0,0,0,0,0,0,0,0,0,0,0,0,0,0,0,0,0,0,0,0,0,0,0,0,0,0,0,0,0,0,0,0,0,0,0,0,0,0,0,0,0,0,0,0,0],"trees":[{"base_weights":[8.20448E-8,-1.0215217E1,1.3962572E0,-1.0650676E1,-6.382649E0,3.1401896E0,-4.481754E0,-1.184617E0,-9.130345E0,-4.2406908E-1,-8.347912E-1,-1.149069E0,3.8635647E0,-2.6198652E0,-7.742414E0,-7.826791E-1,-9.5068866E-1,3.4944767E-1,-7.2937083E-1,4.2820317E-1,-1.0194584E-3,-4.1977534E-1,-1.2062501E-1,-1.0416327E0,-3.9685494E-1],"categories":[],"categories_nodes":[],"categories_segments":[],"categories_sizes":[],"default_left":[0,0,0,0,0,0,0,0,0,0,0,0,0,0,0,0,0,0,0,0,0,0,0,0,0],"id":0,"left_children":[1,3,5,7,9,11,13,-1,15,-1,-1,17,19,21,23,-1,-1,-1,-1,-1,-1,-1,-1,-1,-1],"loss_changes":[5.2901723E4,6.763633E2,3.346261E4,6.1703906E2,1.666554E2,7.814041E3,4.514742E3,0E0,1.3943359E1,0E0,0E0,1.0411467E4,3.4917656E3,1.0588972E3,2.6933193E3,0E0,0E0,0E0,0E0,0E0,0E0,0E0,0E0,0E0,0E0],"parents":[2147483647,0,0,1,1,2,2,3,3,4,4,5,5,6,6,8,8,11,11,12,12,13,13,14,14],"right_children":[2,4,6,8,10,12,14,-1,16,-1,-1,18,20,22,24,-1,-1,-1,-1,-1,-1,-1,-1,-1,-1],"split_conditions":[4E0,3E0,2E1,5E0,2E0,7E0,2.2E1,-1.184617E0,1E0,-4.2406908E-1,-8.347912E-1,5E0,1.9E1,4E0,4E0,-7.826791E-1,-9.5068866E-1,3.4944767E-1,-7.2937083E-1,4.2820317E-1,-1.0194584E-3,-4.1977534E-1,-1.2062501E-1,-1.0416327E0,-3.9685494E-1],"split_indices":[1,1,1,0,0,1,1,0,1,0,0,0,1,0,0,0,0,0,0,0,0,0,0,0,0],"split_type":[0,0,0,0,0,0,0,0,0,0,0,0,0,0,0,0,0,0,0,0,0,0,0,0,0],"sum_hessian":[3.707E3,4.45E2,3.262E3,3.98E2,4.7E1,2.516E3,7.46E2,2.19E2,1.79E2,2.4E1,2.3E1,3.63E2,2.153E3,4.76E2,2.7E2,4.5E1,1.34E2,2.07E2,1.56E2,1.943E3,2.1E2,2.24E2,2.52E2,1.57E2,1.13E2],"tree_param":{"num_deleted":"0","num_feature":"2","num_nodes":"25","size_leaf_vector":"1"}},{"base_weights":[-1.6475721E-3,-9.20306E0,1.2560391E0,-9.592921E0,-5.77061E0,2.826189E0,-4.0362277E0,-1.0666938E0,-8.22694E0,-3.8335842E-1,-7.5479037E-1,-1.7171867E0,3.3865142E0,-2.3590121E0,-6.9734807E0,-7.0611256E-1,-8.5632414E-1,2.2041288E-1,-7.2602934E-1,3.908938E-1,1.0987464E-1,-3.7798437E-1,-1.08610235E-1,-9.3812865E-1,-3.5751754E-1],"categories":[],"categories_nodes":[],"categories_segments":[],"categories_sizes":[],"default_left":[0,0,0,0,0,0,0,0,0,0,0,0,0,0,0,0,0,0,0,0,0,0,0,0,0],"id":1,"left_children":[1,3,5,7,9,11,13,-1,15,-1,-1,17,19,21,23,-1,-1,-1,-1,-1,-1,-1,-1,-1,-1],"loss_changes":[4.2922367E4,5.4147266E2,2.7125803E4,4.9761328E2,1.3631238E2,6.4135137E3,3.6635752E3,0E0,1.0105469E1,0E0,0E0,6.036949E3,2.6741113E3,8.585925E2,2.1839072E3,0E0,0E0,0E0,0E0,0E0,0E0,0E0,0E0,0E0,0E0],"parents":[2147483647,0,0,1,1,2,2,3,3,4,4,5,5,6,6,8,8,11,11,12,12,13,13,14,14],"right_children":[2,4,6,8,10,12,14,-1,16,-1,-1,18,20,22,24,-1,-1,-1,-1,-1,-1,-1,-1,-1,-1],"split_conditions":[4E0,3E0,2E1,5E0,2E0,6E0,2.2E1,-1.0666938E0,1E0,-3.8335842E-1,-7.5479037E-1,5E0,1.8E1,4E0,4E0,-7.0611256E-1,-8.5632414E-1,2.2041288E-1,-7.2602934E-1,3.908938E-1,1.0987464E-1,-3.7798437E-1,-1.08610235E-1,-9.3812865E-1,-3.5751754E-1],"split_indices":[1,1,1,0,0,1,1,0,1,0,0,0,1,0,0,0,0,0,0,0,0,0,0,0,0],"split_type":[0,0,0,0,0,0,0,0,0,0,0,0,0,0,0,0,0,0,0,0,0,0,0,0,0],"sum_hessian":[3.707E3,4.45E2,3.262E3,3.98E2,4.7E1,2.516E3,7.46E2,2.19E2,1.79E2,2.4E1,2.3E1,2.76E2,2.24E3,4.76E2,2.7E2,4.5E1,1.34E2,1.62E2,1.14E2,1.823E3,4.17E2,2.24E2,2.52E2,1.57E2,1.13E2],"tree_param":{"num_deleted":"0","num_feature":"2","num_nodes":"25","size_leaf_vector":"1"}},{"base_weights":[-2.9810215E-3,-8.291201E0,1.1298872E0,-8.640219E0,-5.217261E0,2.543568E0,-3.634991E0,-9.605093E-1,-7.4129267E0,-3.4655604E-1,-6.8245625E-1,-9.9934673E-1,3.1410968E0,-2.1241312E0,-6.280914E0,-6.370363E-1,-7.71326E-1,2.8904727E-1,-6.146373E-1,3.4932783E-1,-1.18534E-2,-5.0103265E-1,-1.6070618E-1,-8.449096E-1,-3.220794E-1],"categories":[],"categories_nodes":[],"categories_segments":[],"categories_sizes":[],"default_left":[0,0,0,0,0,0,0,0,0,0,0,0,0,0,0,0,0,0,0,0,0,0,0,0,0],"id":2,"left_children":[1,3,5,7,9,11,13,-1,15,-1,-1,17,19,21,23,-1,-1,-1,-1,-1,-1,-1,-1,-1,-1],"loss_changes":[3.4825492E4,4.3341797E2,2.1988865E4,4.0128516E2,1.1149353E2,5.3316143E3,2.972879E3,0E0,7.225586E0,0E0,0E0,7.305411E3,2.473166E3,7.038054E2,1.7708447E3,0E0,0E0,0E0,0E0,0E0,0E0,0E0,0E0,0E0,0E0],"parents":[2147483647,0,0,1,1,2,2,3,3,4,4,5,5,6,6,8,8,11,11,12,12,13,13,14,14],"right_children":[2,4,6,8,10,12,14,-1,16,-1,-1,18,20,22,24,-1,-1,-1,-1,-1,-1,-1,-1,-1,-1],"split_conditions":[4E0,3E0,2E1,5E0,2E0,7E0,2.2E1,-9.605093E-1,1E0,-3.4655604E-1,-6.8245625E-1,5E0,1.9E1,2E0,4E0,-6.370363E-1,-7.71326E-1,2.8904727E-1,-6.146373E-1,3.4932783E-1,-1.18534E-2,-5.0103265E-1,-1.6070618E-1,-8.449096E-1,-3.220794E-1],"split_indices":[1,1,1,0,0,1,1,0,1,0,0,0,1,0,0,0,0,0,0,0,0,0,0,0,0],"split_type":[0,0,0,0,0,0,0,0,0,0,0,0,0,0,0,0,0,0,0,0,0,0,0,0,0],"sum_hessian":[3.707E3,4.45E2,3.262E3,3.98E2,4.7E1,2.516E3,7.46E2,2.19E2,1.79E2,2.4E1,2.3E1,3.63E2,2.153E3,4.76E2,2.7E2,4.5E1,1.34E2,2.07E2,1.56E2,1.943E3,2.1E2,7.1E1,4.05E2,1.57E2,1.13E2],"tree_param":{"num_deleted":"0","num_feature":"2","num_nodes":"25","size_leaf_vector":"1"}},{"base_weights":[-4.089251E-3,-7.4696994E0,1.0163417E0,-7.7821336E0,-4.716973E0,2.2892158E0,-3.2739396E0,-8.64895E-1,-6.679458E0,-3.132867E-1,-6.170542E-1,-1.4633838E0,2.7520363E0,-1.913105E0,-5.6571283E0,-5.747176E-1,-6.9476473E-1,1.6977939E-1,-5.9312844E-1,3.1928053E-1,8.220968E-2,-3.1361556E-1,-8.1785016E-2,-7.6095337E-1,-2.9015395E-1],"categories":[],"categories_nodes":[],"categories_segments":[],"categories_sizes":[],"default_left":[0,0,0,0,0,0,0,0,0,0,0,0,0,0,0,0,0,0,0,0,0,0,0,0,0],"id":3,"left_children":[1,3,5,7,9,11,13,-1,15,-1,-1,17,19,21,23,-1,-1,-1,-1,-1,-1,-1,-1,-1,-1],"loss_changes":[2.8255654E4,3.4687305E2,1.7826697E4,3.235996E2,9.1193726E1,4.375503E3,2.4117915E3,0E0,5.076172E0,0E0,0E0,3.92237E3,1.9036992E3,6.3640137E2,1.4359072E3,0E0,0E0,0E0,0E0,0E0,0E0,0E0,0E0,0E0,0E0],"parents":[2147483647,0,0,1,1,2,2,3,3,4,4,5,5,6,6,8,8,11,11,12,12,13,13,14,14],"right_children":[2,4,6,8,10,12,14,-1,16,-1,-1,18,20,22,24,-1,-1,-1,-1,-1,-1,-1,-1,-1,-1],"split_conditions":[4E0,3E0,2E1,5E0,2E0,6E0,2.2E1,-8.64895E-1,1E0,-3.132867E-1,-6.170542E-1,5E0,1.8E1,4E0,4E0,-5.747176E-1,-6.9476473E-1,1.6977939E-1,-5.9312844E-1,3.1928053E-1,8.220968E-2,-3.1361556E-1,-8.1785016E-2,-7.6095337E-1,-2.9015395E-1],"split_indices":[1,1,1,0,0,1,1,0,1,0,0,0,1,0,0,0,0,0,0,0,0,0,0,0,0],"split_type":[0,0,0,0,0,0,0,0,0,0,0,0,0,0,0,0,0,0,0,0,0,0,0,0,0],"sum_hessian":[3.707E3,4.45E2,3.262E3,3.98E2,4.7E1,2.516E3,7.46E2,2.19E2,1.79E2,2.4E1,2.3E1,2.76E2,2.24E3,4.76E2,2.7E2,4.5E1,1.34E2,1.62E2,1.14E2,1.823E3,4.17E2,2.24E2,2.52E2,1.57E2,1.13E2],"tree_param":{"num_deleted":"0","num_feature":"2","num_nodes":"25","size_leaf_vector":"1"}},{"base_weights":[-4.902881E-3,-6.729601E0,9.1425747E-1,-7.009269E0,-4.2646575E0,1.8311315E0,-3.9704013E0,-7.787986E-1,-6.0185647E0,-2.8321117E-1,-5.579199E-1,-1.318574E0,2.183331E0,-5.878078E0,-1.9012138E0,-5.184952E-1,-6.258029E-1,1.5290557E-1,-5.343314E-1,2.7527174E-1,-4.3795157E-2,-4.4368306E-1,-6.853397E-1,-1.408249E-1,-7.186343E-1],"categories":[],"categories_nodes":[],"categories_segments":[],"categories_sizes":[],"default_left":[0,0,0,0,0,0,0,0,0,0,0,0,0,0,0,0,0,0,0,0,0,0,0,0,0],"id":4,"left_children":[1,3,5,7,9,11,13,-1,15,-1,-1,17,19,21,23,-1,-1,-1,-1,-1,-1,-1,-1,-1,-1],"loss_changes":[2.2925582E4,2.7756445E2,1.4620996E4,2.6094727E2,7.4589905E1,3.0513027E3,2.0256533E3,0E0,3.4838867E0,0E0,0E0,3.1828586E3,3.6907207E3,3.4631348E2,6.3862E2,0E0,0E0,0E0,0E0,0E0,0E0,0E0,0E0,0E0,0E0],"parents":[2147483647,0,0,1,1,2,2,3,3,4,4,5,5,6,6,8,8,11,11,12,12,13,13,14,14],"right_children":[2,4,6,8,10,12,14,-1,16,-1,-1,18,20,22,24,-1,-1,-1,-1,-1,-1,-1,-1,-1,-1],"split_conditions":[4E0,3E0,2.1E1,5E0,2E0,6E0,4E0,-7.787986E-1,1E0,-2.8321117E-1,-5.579199E-1,5E0,1.9E1,2.2E1,7E0,-5.184952E-1,-6.258029E-1,1.5290557E-1,-5.343314E-1,2.7527174E-1,-4.3795157E-2,-4.4368306E-1,-6.853397E-1,-1.408249E-1,-7.186343E-1],"split_indices":[1,1,1,0,0,1,0,0,1,0,0,0,1,1,0,0,0,0,0,0,0,0,0,0,0],"split_type":[0,0,0,0,0,0,0,0,0,0,0,0,0,0,0,0,0,0,0,0,0,0,0,0,0],"sum_hessian":[3.707E3,4.45E2,3.262E3,3.98E2,4.7E1,2.747E3,5.15E2,2.19E2,1.79E2,2.4E1,2.3E1,2.76E2,2.471E3,2.67E2,2.48E2,4.5E1,1.34E2,1.62E2,1.14E2,2.03E3,4.41E2,1.1E2,1.57E2,2.28E2,2E1],"tree_param":{"num_deleted":"0","num_feature":"2","num_nodes":"25","size_leaf_vector":"1"}},{"base_weights":[-5.7344995E-3,-6.062839E0,8.221767E-1,-6.3131623E0,-3.8557158E0,1.6479641E0,-3.5772147E0,-7.012728E-1,-5.423065E0,-2.5602293E-1,-5.0445265E-1,2.4644759E0,4.2429549E-1,-5.2944827E0,-1.7145437E0,-4.677728E-1,-5.636861E-1,3.204675E-1,-1.1633716E-1,-3.58044E-1,1.7425929E-1,-3.997145E-1,-6.172394E-1,-1.2680387E-1,-6.501929E-1],"categories":[],"categories_nodes":[],"categories_segments":[],"categories_sizes":[],"default_left":[0,0,0,0,0,0,0,0,0,0,0,0,0,0,0,0,0,0,0,0,0,0,0,0,0],"id":5,"left_children":[1,3,5,7,9,11,13,-1,15,-1,-1,17,19,21,23,-1,-1,-1,-1,-1,-1,-1,-1,-1,-1],"loss_changes":[1.8599658E4,2.2207227E2,1.186025E4,2.1041895E2,6.1009094E1,2.7445894E3,1.6414551E3,0E0,2.3149414E0,0E0,0E0,4.4291514E3,5.8188936E3,2.8056543E2,5.240154E2,0E0,0E0,0E0,0E0,0E0,0E0,0E0,0E0,0E0,0E0],"parents":[2147483647,0,0,1,1,2,2,3,3,4,4,5,5,6,6,8,8,11,11,12,12,13,13,14,14],"right_children":[2,4,6,8,10,12,14,-1,16,-1,-1,18,20,22,24,-1,-1,-1,-1,-1,-1,-1,-1,-1,-1],"split_conditions":[4E0,3E0,2.1E1,5E0,2E0,5E0,4E0,-7.012728E-1,1E0,-2.5602293E-1,-5.0445265E-1,1.9E1,9E0,2.2E1,7E0,-4.677728E-1,-5.636861E-1,3.204675E-1,-1.1633716E-1,-3.58044E-1,1.7425929E-1,-3.997145E-1,-6.172394E-1,-1.2680387E-1,-6.501929E-1],"split_indices":[1,1,1,0,0,0,0,0,1,0,0,1,1,1,0,0,0,0,0,0,0,0,0,0,0],"split_type":[0,0,0,0,0,0,0,0,0,0,0,0,0,0,0,0,0,0,0,0,0,0,0,0,0],"sum_hessian":[3.707E3,4.45E2,3.262E3,3.98E2,4.7E1,2.747E3,5.15E2,2.19E2,1.79E2,2.4E1,2.3E1,1.647E3,1.1E3,2.67E2,2.48E2,4.5E1,1.34E2,1.368E3,2.79E2,2.72E2,8.28E2,1.1E2,1.57E2,2.28E2,2E1],"tree_param":{"num_deleted":"0","num_feature":"2","num_nodes":"25","size_leaf_vector":"1"}},{"base_weights":[-6.3119875E-3,-5.462145E0,7.394152E-1,-5.6861887E0,-3.4859877E0,1.6764356E0,-2.418844E0,-6.3146424E0,-4.886489E0,-2.3144476E-1,-4.5610926E-1,-1.6194049E-1,2.272228E0,-1.3853217E0,-4.2290697E0,-5.6996286E-1,-6.638784E-1,-4.2201248E-1,-5.07735E-1,2.2613187E-1,-3.2237077E-1,2.7694094E-1,5.0167967E-2,-3.6030644E-1,-9.8861545E-2,-5.5590624E-1,-2.3486502E-1],"categories":[],"categories_nodes":[],"categories_segments":[],"categories_sizes":[],"default_left":[0,0,0,0,0,0,0,0,0,0,0,0,0,0,0,0,0,0,0,0,0,0,0,0,0,0,0],"id":6,"left_children":[1,3,5,7,9,11,13,15,17,-1,-1,19,21,23,25,-1,-1,-1,-1,-1,-1,-1,-1,-1,-1,-1,-1],"loss_changes":[1.5090271E4,1.7764355E2,9.660424E3,1.696709E2,4.990094E1,2.7572139E3,1.39171E3,6.0185547E0,1.465332E0,0E0,0E0,4.5850938E3,1.6720293E3,4.16099E2,6.646992E2,0E0,0E0,0E0,0E0,0E0,0E0,0E0,0E0,0E0,0E0,0E0,0E0],"parents":[2147483647,0,0,1,1,2,2,3,3,4,4,5,5,6,6,7,7,8,8,11,11,12,12,13,13,14,14],"right_children":[2,4,6,8,10,12,14,16,18,-1,-1,20,22,24,26,-1,-1,-1,-1,-1,-1,-1,-1,-1,-1,-1,-1],"split_conditions":[4E0,3E0,2E1,5E0,2E0,9E0,2.2E1,2E0,1E0,-2.3144476E-1,-4.5610926E-1,5E0,1.8E1,2E0,4E0,-5.6996286E-1,-6.638784E-1,-4.2201248E-1,-5.07735E-1,2.2613187E-1,-3.2237077E-1,2.7694094E-1,5.0167967E-2,-3.6030644E-1,-9.8861545E-2,-5.5590624E-1,-2.3486502E-1],"split_indices":[1,1,1,0,0,1,1,0,1,0,0,0,1,0,0,0,0,0,0,0,0,0,0,0,0,0,0],"split_type":[0,0,0,0,0,0,0,0,0,0,0,0,0,0,0,0,0,0,0,0,0,0,0,0,0,0,0],"sum_hessian":[3.707E3,4.45E2,3.262E3,3.98E2,4.7E1,2.516E3,7.46E2,2.19E2,1.79E2,2.4E1,2.3E1,6.16E2,1.9E3,4.76E2,2.7E2,8.2E1,1.37E2,4.5E1,1.34E2,3.44E2,2.72E2,1.483E3,4.17E2,7.1E1,4.05E2,1.57E2,1.13E2],"tree_param":{"num_deleted":"0","num_feature":"2","num_nodes":"27","size_leaf_vector":"1"}},{"base_weights":[-6.724661E-3,-4.922323E0,6.6516125E-1,-5.122992E0,-3.1517131E0,1.3403012E0,-2.9316404E0,-5.6887865E0,-4.403005E0,-2.0922612E-1,-4.123988E-1,-1.2277393E0,1.6275208E0,-4.35674E0,-1.3860246E0,-5.136532E-1,-5.979716E-1,-3.8072866E-1,-4.573376E-1,8.338424E-2,-4.139131E-1,2.0554839E-1,-3.4266133E-2,-3.3923587E-1,-5.0066745E-1,-9.762477E-2,-5.7885426E-1],"categories":[],"categories_nodes":[],"categories_segments":[],"categories_sizes":[],"default_left":[0,0,0,0,0,0,0,0,0,0,0,0,0,0,0,0,0,0,0,0,0,0,0,0,0,0,0],"id":7,"left_children":[1,3,5,7,9,11,13,15,17,-1,-1,19,21,23,25,-1,-1,-1,-1,-1,-1,-1,-1,-1,-1,-1,-1],"loss_changes":[1.2249764E4,1.4232031E2,7.927617E3,1.3749121E2,4.0815308E1,2.0289004E3,1.1305317E3,4.6313477E0,8.5668945E-1,0E0,0E0,1.6660256E3,2.0850088E3,1.5099414E2,4.435575E2,0E0,0E0,0E0,0E0,0E0,0E0,0E0,0E0,0E0,0E0,0E0,0E0],"parents":[2147483647,0,0,1,1,2,2,3,3,4,4,5,5,6,6,7,7,8,8,11,11,12,12,13,13,14,14],"right_children":[2,4,6,8,10,12,14,16,18,-1,-1,20,22,24,26,-1,-1,-1,-1,-1,-1,-1,-1,-1,-1,-1,-1],"split_conditions":[4E0,3E0,2.1E1,5E0,2E0,6E0,4E0,2E0,1E0,-2.0922612E-1,-4.123988E-1,5E0,1.9E1,2.2E1,7E0,-5.136532E-1,-5.979716E-1,-3.8072866E-1,-4.573376E-1,8.338424E-2,-4.139131E-1,2.0554839E-1,-3.4266133E-2,-3.3923587E-1,-5.0066745E-1,-9.762477E-2,-5.7885426E-1],"split_indices":[1,1,1,0,0,1,0,0,1,0,0,0,1,1,0,0,0,0,0,0,0,0,0,0,0,0,0],"split_type":[0,0,0,0,0,0,0,0,0,0,0,0,0,0,0,0,0,0,0,0,0,0,0,0,0,0,0],"sum_hessian":[3.707E3,4.45E2,3.262E3,3.98E2,4.7E1,2.747E3,5.15E2,2.19E2,1.79E2,2.4E1,2.3E1,2.76E2,2.471E3,2.67E2,2.48E2,8.2E1,1.37E2,4.5E1,1.34E2,1.62E2,1.14E2,2.03E3,4.41E2,1.1E2,1.57E2,2.28E2,2E1],"tree_param":{"num_deleted":"0","num_feature":"2","num_nodes":"27","size_leaf_vector":"1"}},{"base_weights":[-7.197706E-3,-4.4358563E0,5.981314E-1,-4.6155796E0,-2.8494928E0,1.2062129E0,-2.6414149E0,-5.1249604E0,-3.9673605E0,-1.8914044E-1,-3.7287727E-1,1.8728368E0,2.0730041E-1,-3.9241996E0,-1.2501389E0,-5.3304523E-1,-4.5019507E-1,-3.4348345E-1,-4.1194263E-1,2.4523865E-1,-9.67435E-2,-2.8486374E-1,1.2134086E-1,-3.0561784E-1,-4.5091754E-1,-8.790492E-2,-5.237253E-1],"categories":[],"categories_nodes":[],"categories_segments":[],"categories_sizes":[],"default_left":[0,0,0,0,0,0,0,0,0,0,0,0,0,0,0,0,0,0,0,0,0,0,0,0,0,0,0],"id":8,"left_children":[1,3,5,7,9,11,13,15,17,-1,-1,19,21,23,25,-1,-1,-1,-1,-1,-1,-1,-1,-1,-1,-1,-1],"loss_changes":[9.943045E3,1.1400488E2,6.430996E3,1.11413086E2,3.338394E1,1.8295027E3,9.160032E2,4.1674805E0,4.2651367E-1,0E0,0E0,2.7151094E3,3.3885955E3,1.2230176E2,3.6381082E2,0E0,0E0,0E0,0E0,0E0,0E0,0E0,0E0,0E0,0E0,0E0,0E0],"parents":[2147483647,0,0,1,1,2,2,3,3,4,4,5,5,6,6,7,7,8,8,11,11,12,12,13,13,14,14],"right_children":[2,4,6,8,10,12,14,16,18,-1,-1,20,22,24,26,-1,-1,-1,-1,-1,-1,-1,-1,-1,-1,-1,-1],"split_conditions":[4E0,3E0,2.1E1,5E0,2E0,5E0,4E0,2E0,1E0,-1.8914044E-1,-3.7287727E-1,1.9E1,9E0,2.2E1,7E0,-5.3304523E-1,-4.5019507E-1,-3.4348345E-1,-4.1194263E-1,2.4523865E-1,-9.67435E-2,-2.8486374E-1,1.2134086E-1,-3.0561784E-1,-4.5091754E-1,-8.790492E-2,-5.237253E-1],"split_indices":[1,1,1,0,0,0,0,1,1,0,0,1,1,1,0,0,0,0,0,0,0,0,0,0,0,0,0],"split_type":[0,0,0,0,0,0,0,0,0,0,0,0,0,0,0,0,0,0,0,0,0,0,0,0,0,0,0],"sum_hessian":[3.707E3,4.45E2,3.262E3,3.98E2,4.7E1,2.747E3,5.15E2,2.19E2,1.79E2,2.4E1,2.3E1,1.647E3,1.1E3,2.67E2,2.48E2,1.59E2,6E1,4.5E1,1.34E2,1.368E3,2.79E2,2.72E2,8.28E2,1.1E2,1.57E2,2.28E2,2E1],"tree_param":{"num_deleted":"0","num_feature":"2","num_nodes":"27","size_leaf_vector":"1"}},{"base_weights":[-7.471707E-3,-3.9974291E0,5.3789407E-1,-4.158379E0,-2.5762525E0,1.2268256E0,-1.7841659E0,-4.616934E0,-3.5748212E0,-1.7098297E-1,-3.371432E-1,-8.261381E-1,1.5731822E0,-9.871588E-1,-3.180432E0,-4.1623363E-1,-4.856895E-1,-3.0988178E-1,-3.7105352E-1,1.3254197E-1,-3.6713475E-1,1.8837951E-1,2.7866617E-2,-2.783145E-1,-6.6622734E-2,-4.5485234E-1,-2.2174597E-1],"categories":[],"categories_nodes":[],"categories_segments":[],"categories_sizes":[],"default_left":[0,0,0,0,0,0,0,0,0,0,0,0,0,0,0,0,0,0,0,0,0,0,0,0,0,0,0],"id":9,"left_children":[1,3,5,7,9,11,13,15,17,-1,-1,19,21,23,25,-1,-1,-1,-1,-1,-1,-1,-1,-1,-1,-1,-1],"loss_changes":[8.0707065E3,9.130469E1,5.2221416E3,9.026465E1,2.7305603E1,1.791031E3,8.2814746E2,3.7827148E0,1.2988281E-1,0E0,0E0,2.2331404E3,8.655845E2,2.7308313E2,3.4693823E2,0E0,0E0,0E0,0E0,0E0,0E0,0E0,0E0,0E0,0E0,0E0,0E0],"parents":[2147483647,0,0,1,1,2,2,3,3,4,4,5,5,6,6,7,7,8,8,11,11,12,12,13,13,14,14],"right_children":[2,4,6,8,10,12,14,16,18,-1,-1,20,22,24,26,-1,-1,-1,-1,-1,-1,-1,-1,-1,-1,-1,-1],"split_conditions":[4E0,3E0,2E1,5E0,2E0,7E0,2.2E1,2E0,1E0,-1.7098297E-1,-3.371432E-1,5E0,1.8E1,2E0,3E0,-4.1623363E-1,-4.856895E-1,-3.0988178E-1,-3.7105352E-1,1.3254197E-1,-3.6713475E-1,1.8837951E-1,2.7866617E-2,-2.783145E-1,-6.6622734E-2,-4.5485234E-1,-2.2174597E-1],"split_indices":[1,1,1,0,0,1,1,0,1,0,0,0,1,0,0,0,0,0,0,0,0,0,0,0,0,0,0],"split_type":[0,0,0,0,0,0,0,0,0,0,0,0,0,0,0,0,0,0,0,0,0,0,0,0,0,0,0],"sum_hessian":[3.707E3,4.45E2,3.262E3,3.98E2,4.7E1,2.516E3,7.46E2,2.19E2,1.79E2,2.4E1,2.3E1,3.63E2,2.153E3,4.76E2,2.7E2,8.2E1,1.37E2,4.5E1,1.34E2,2.07E2,1.56E2,1.736E3,4.17E2,7.1E1,4.05E2,1.1E2,1.6E2],"tree_param":{"num_deleted":"0","num_feature":"2","num_nodes":"27","size_leaf_vector":"1"}},{"base_weights":[-7.568684E-3,-3.6023743E0,4.8378617E-1,-3.7465081E0,-2.3292131E0,9.806587E-1,-2.1632864E0,-4.15934E0,-3.221122E-1,-1.5456858E-1,-3.0483368E-1,1.556002E0,1.185821E-1,-3.2445505E0,-9.908286E-1,-4.3276343E-1,-3.6497256E-1,2.0437081E-1,-8.340892E-2,-2.4350698E-1,9.593884E-2,-3.9324656E-1,-2.7017877E-1,-6.486505E-2,-4.6750164E-1],"categories":[],"categories_nodes":[],"categories_segments":[],"categories_sizes":[],"default_left":[0,0,0,0,0,0,0,0,0,0,0,0,0,0,0,0,0,0,0,0,0,0,0,0,0],"id":10,"left_children":[1,3,5,7,9,11,13,15,-1,-1,-1,17,19,21,23,-1,-1,-1,-1,-1,-1,-1,-1,-1,-1],"loss_changes":[6.551277E3,7.311719E1,4.2938076E3,7.3143555E1,2.2333984E1,1.3627959E3,6.5093726E2,3.0737305E0,0E0,0E0,0E0,1.9227151E3,2.3663223E3,8.94397E1,3.108689E2,0E0,0E0,0E0,0E0,0E0,0E0,0E0,0E0,0E0,0E0],"parents":[2147483647,0,0,1,1,2,2,3,3,4,4,5,5,6,6,7,7,11,11,12,12,13,13,14,14],"right_children":[2,4,6,8,10,12,14,16,-1,-1,-1,18,20,22,24,-1,-1,-1,-1,-1,-1,-1,-1,-1,-1],"split_conditions":[4E0,3E0,2.1E1,5E0,2E0,5E0,4E0,2E0,-3.221122E-1,-1.5456858E-1,-3.0483368E-1,1.9E1,9E0,2E0,7E0,-4.3276343E-1,-3.6497256E-1,2.0437081E-1,-8.340892E-2,-2.4350698E-1,9.593884E-2,-3.9324656E-1,-2.7017877E-1,-6.486505E-2,-4.6750164E-1],"split_indices":[1,1,1,0,0,0,0,1,0,0,0,1,1,0,0,0,0,0,0,0,0,0,0,0,0],"split_type":[0,0,0,0,0,0,0,0,0,0,0,0,0,0,0,0,0,0,0,0,0,0,0,0,0],"sum_hessian":[3.707E3,4.45E2,3.262E3,3.98E2,4.7E1,2.747E3,5.15E2,2.19E2,1.79E2,2.4E1,2.3E1,1.647E3,1.1E3,2.67E2,2.48E2,1.59E2,6E1,1.368E3,2.79E2,2.72E2,8.28E2,1.15E2,1.52E2,2.28E2,2E1],"tree_param":{"num_deleted":"0","num_feature":"2","num_nodes":"25","size_leaf_vector":"1"}},{"base_weights":[-7.567332E-3,-3.2456777E0,4.35033E-1,-3.3746638E0,-2.1058624E0,8.825832E-1,-1.9492753E0,-3.747032E0,-2.9007993E0,-1.3972998E-1,-2.7562043E-1,-1.0780748E0,1.1019278E0,-2.922571E0,-8.938837E-1,-3.3725736E-1,-3.9450973E-1,-2.4805622E-1,-3.022504E-1,4.805301E-1,-1.5794663E-1,1.4969613E-1,-1.0002858E-3,-3.542609E-1,-2.433375E-1,-5.840687E-2,-4.229777E-1],"categories":[],"categories_nodes":[],"categories_segments":[],"categories_sizes":[],"default_left":[0,0,0,0,0,0,0,0,0,0,0,0,0,0,0,0,0,0,0,0,0,0,0,0,0,0,0],"id":11,"left_children":[1,3,5,7,9,11,13,15,17,-1,-1,19,21,23,25,-1,-1,-1,-1,-1,-1,-1,-1,-1,-1,-1,-1],"loss_changes":[5.3156753E3,5.8464355E1,3.4836604E3,5.9535156E1,1.8267548E1,1.1829917E3,5.27427E2,3.0117188E0,1.7084961E0,0E0,0E0,8.247049E2,1.0858406E3,7.266919E1,2.5487349E2,0E0,0E0,0E0,0E0,0E0,0E0,0E0,0E0,0E0,0E0,0E0,0E0],"parents":[2147483647,0,0,1,1,2,2,3,3,4,4,5,5,6,6,7,7,8,8,11,11,12,12,13,13,14,14],"right_children":[2,4,6,8,10,12,14,16,18,-1,-1,20,22,24,26,-1,-1,-1,-1,-1,-1,-1,-1,-1,-1,-1,-1],"split_conditions":[4E0,3E0,2.1E1,5E0,2E0,6E0,4E0,2E0,1E0,-1.3972998E-1,-2.7562043E-1,2E0,1.8E1,2E0,7E0,-3.3725736E-1,-3.9450973E-1,-2.4805622E-1,-3.022504E-1,4.805301E-1,-1.5794663E-1,1.4969613E-1,-1.0002858E-3,-3.542609E-1,-2.433375E-1,-5.840687E-2,-4.229777E-1],"split_indices":[1,1,1,0,0,1,0,0,1,0,0,0,1,0,0,0,0,0,0,0,0,0,0,0,0,0,0],"split_type":[0,0,0,0,0,0,0,0,0,0,0,0,0,0,0,0,0,0,0,0,0,0,0,0,0,0,0],"sum_hessian":[3.707E3,4.45E2,3.262E3,3.98E2,4.7E1,2.747E3,5.15E2,2.19E2,1.79E2,2.4E1,2.3E1,2.76E2,2.471E3,2.67E2,2.48E2,8.2E1,1.37E2,4.5E1,1.34E2,2.1E1,2.55E2,1.823E3,6.48E2,1.15E2,1.52E2,2.28E2,2E1],"tree_param":{"num_deleted":"0","num_feature":"2","num_nodes":"27","size_leaf_vector":"1"}},{"base_weights":[-7.432347E-3,-2.9249158E0,3.9134333E-1,-3.0404108E0,-1.9039291E0,8.9976823E-1,-1.3223071E0,-3.375655E0,-2.6137767E0,-1.2631586E-1,-2.4920681E-1,1.4796548E0,3.0196352E-2,-6.747226E-1,-2.457272E0,-3.0393797E-1,-3.5534462E-1,-2.2378984E-1,-2.7224922E-1,1.7317013E-1,-9.607061E-2,-2.2131363E-1,8.62261E-2,-3.9091654E-2,-2.4361375E-1,-3.4455326E-1,-1.7606622E-1],"categories":[],"categories_nodes":[],"categories_segments":[],"categories_sizes":[],"default_left":[0,0,0,0,0,0,0,0,0,0,0,0,0,0,0,0,0,0,0,0,0,0,0,0,0,0,0],"id":12,"left_children":[1,3,5,7,9,11,13,15,17,-1,-1,19,21,23,25,-1,-1,-1,-1,-1,-1,-1,-1,-1,-1,-1,-1],"loss_changes":[4.315112E3,4.680298E1,2.8441196E3,4.8244385E1,1.4941483E1,1.26916E3,5.4737634E2,2.3527832E0,1.2626953E0,0E0,0E0,9.3044116E2,1.8834386E3,2.3750014E2,1.8049866E2,0E0,0E0,0E0,0E0,0E0,0E0,0E0,0E0,0E0,0E0,0E0,0E0],"parents":[2147483647,0,0,1,1,2,2,3,3,4,4,5,5,6,6,7,7,8,8,11,11,12,12,13,13,14,14],"right_children":[2,4,6,8,10,12,14,16,18,-1,-1,20,22,24,26,-1,-1,-1,-1,-1,-1,-1,-1,-1,-1,-1,-1],"split_conditions":[4E0,3E0,2E1,5E0,2E0,5E0,2.2E1,2E0,1E0,-1.2631586E-1,-2.4920681E-1,1.9E1,9E0,7E0,3E0,-3.0393797E-1,-3.5534462E-1,-2.2378984E-1,-2.7224922E-1,1.7317013E-1,-9.607061E-2,-2.2131363E-1,8.62261E-2,-3.9091654E-2,-2.4361375E-1,-3.4455326E-1,-1.7606622E-1],"split_indices":[1,1,1,0,0,0,1,0,1,0,0,1,1,0,0,0,0,0,0,0,0,0,0,0,0,0,0],"split_type":[0,0,0,0,0,0,0,0,0,0,0,0,0,0,0,0,0,0,0,0,0,0,0,0,0,0,0],"sum_hessian":[3.707E3,4.45E2,3.262E3,3.98E2,4.7E1,2.516E3,7.46E2,2.19E2,1.79E2,2.4E1,2.3E1,1.509E3,1.007E3,4.76E2,2.7E2,8.2E1,1.37E2,4.5E1,1.34E2,1.368E3,1.41E2,2.72E2,7.35E2,4.11E2,6.5E1,1.1E2,1.6E2],"tree_param":{"num_deleted":"0","num_feature":"2","num_nodes":"27","size_leaf_vector":"1"}},{"base_weights":[-7.3341667E-3,-2.0039577E0,4.7528034E-1,-2.7392652E0,-1.0922551E0,1.1455623E0,-9.4772685E-1,-3.041086E0,-2.3551548E0,-8.7283894E-2,-2.446149E0,1.7577273E0,2.4855773E-1,-2.9268482E0,-4.6007842E-1,-3.1673485E-1,-2.6600525E-1,-2.0189738E-1,-2.4522598E-1,1.379164E-1,-5.6171574E-2,-1.6140194E-1,-3.2086658E-1,1.17804445E-1,2.6516715E-1,-1.6383533E-1,6.979885E-2,-2.6189205E-1,-3.4244192E-1,1.7220437E-3,-1.7909572E-1],"categories":[],"categories_nodes":[],"categories_segments":[],"categories_sizes":[],"default_left":[0,0,0,0,0,0,0,0,0,0,0,0,0,0,0,0,0,0,0,0,0,0,0,0,0,0,0,0,0,0,0],"id":13,"left_children":[1,3,5,7,9,11,13,15,17,19,21,23,25,27,29,-1,-1,-1,-1,-1,-1,-1,-1,-1,-1,-1,-1,-1,-1,-1,-1],"loss_changes":[3.5739792E3,4.8102344E2,2.850134E3,3.909497E1,4.4062888E2,1.1148157E3,9.222687E2,2.1589355E0,9.2510986E-1,1.3087613E2,8.238391E1,6.2234814E2,7.00773E2,1.9989624E1,4.8852032E2,0E0,0E0,0E0,0E0,0E0,0E0,0E0,0E0,0E0,0E0,0E0,0E0,0E0,0E0,0E0,0E0],"parents":[2147483647,0,0,1,1,2,2,3,3,4,4,5,5,6,6,7,7,8,8,9,9,10,10,11,11,12,12,13,13,14,14],"right_children":[2,4,6,8,10,12,14,16,18,20,22,24,26,28,30,-1,-1,-1,-1,-1,-1,-1,-1,-1,-1,-1,-1,-1,-1,-1,-1],"split_conditions":[6E0,3E0,1.9E1,5E0,5E0,5E0,2E0,2E0,1E0,2E0,7E0,1.4E1,9E0,2.2E1,2.2E1,-3.1673485E-1,-2.6600525E-1,-2.0189738E-1,-2.4522598E-1,1.379164E-1,-5.6171574E-2,-1.6140194E-1,-3.2086658E-1,1.17804445E-1,2.6516715E-1,-1.6383533E-1,6.979885E-2,-2.6189205E-1,-3.4244192E-1,1.7220437E-3,-1.7909572E-1],"split_indices":[1,1,1,0,0,0,0,1,1,0,0,1,1,1,1,0,0,0,0,0,0,0,0,0,0,0,0,0,0,0,0],"split_type":[0,0,0,0,0,0,0,0,0,0,0,0,0,0,0,0,0,0,0,0,0,0,0,0,0,0,0,0,0,0,0],"sum_hessian":[3.707E3,7.21E2,2.986E3,3.98E2,3.23E2,2.03E3,9.56E2,2.19E2,1.79E2,1.86E2,1.37E2,1.206E3,8.24E2,1.88E2,7.68E2,1.59E2,6E1,4.5E1,1.34E2,4.5E1,1.41E2,6.7E1,7E1,7.33E2,4.73E2,1.58E2,6.66E2,1.2E2,6.8E1,5.66E2,2.02E2],"tree_param":{"num_deleted":"0","num_feature":"2","num_nodes":"31","size_leaf_vector":"1"}},{"base_weights":[-7.119396E-3,-1.8055432E0,4.2758736E-1,-2.4679198E0,-9.84266E-1,1.1322044E0,-6.769221E-1,-2.7396264E0,-2.1221235E0,-7.8118525E-2,-2.205029E0,5.229467E-1,2.320298E0,-1.7468657E0,3.3868822E-1,-2.462857E-1,-2.8862366E-1,-1.8214656E-1,-2.2088504E-1,1.2442457E-1,-5.059399E-2,-1.4549911E-1,-2.8923187E-1,8.6240806E-2,-1.7528294E-1,3.2473794E-1,1.2113943E-1,-2.6675913E-1,-1.2059786E-1,1.5110277E-1,-4.0856257E-2],"categories":[],"categories_nodes":[],"categories_segments":[],"categories_sizes":[],"default_left":[0,0,0,0,0,0,0,0,0,0,0,0,0,0,0,0,0,0,0,0,0,0,0,0,0,0,0,0,0,0,0],"id":14,"left_children":[1,3,5,7,9,11,13,15,17,19,21,23,25,27,29,-1,-1,-1,-1,-1,-1,-1,-1,-1,-1,-1,-1,-1,-1,-1,-1],"loss_changes":[2.899638E3,3.903352E2,2.3254175E3,3.1674316E1,3.5823373E2,1.3190984E3,1.2654475E3,1.8186035E0,6.702881E-1,1.0642207E2,6.692975E1,9.33965E2,6.313972E2,2.791538E2,5.2448425E2,0E0,0E0,0E0,0E0,0E0,0E0,0E0,0E0,0E0,0E0,0E0,0E0,0E0,0E0,0E0,0E0],"parents":[2147483647,0,0,1,1,2,2,3,3,4,4,5,5,6,6,7,7,8,8,9,9,10,10,11,11,12,12,13,13,14,14],"right_children":[2,4,6,8,10,12,14,16,18,20,22,24,26,28,30,-1,-1,-1,-1,-1,-1,-1,-1,-1,-1,-1,-1,-1,-1,-1,-1],"split_conditions":[6E0,3E0,1.8E1,5E0,5E0,1.4E1,4E0,2E0,1E0,2E0,7E0,7E0,5E0,2E0,2E1,-2.462857E-1,-2.8862366E-1,-1.8214656E-1,-2.2088504E-1,1.2442457E-1,-5.059399E-2,-1.4549911E-1,-2.8923187E-1,8.6240806E-2,-1.7528294E-1,3.2473794E-1,1.2113943E-1,-2.6675913E-1,-1.2059786E-1,1.5110277E-1,-4.0856257E-2],"split_indices":[1,1,1,0,0,1,0,0,1,0,0,0,0,0,1,0,0,0,0,0,0,0,0,0,0,0,0,0,0,0,0],"split_type":[0,0,0,0,0,0,0,0,0,0,0,0,0,0,0,0,0,0,0,0,0,0,0,0,0,0,0,0,0,0,0],"sum_hessian":[3.707E3,7.21E2,2.986E3,3.98E2,3.23E2,1.823E3,1.163E3,2.19E2,1.79E2,1.86E2,1.37E2,1.206E3,6.17E2,5.66E2,5.97E2,8.2E1,1.37E2,4.5E1,1.34E2,4.5E1,1.41E2,6.7E1,7E1,1.05E3,1.56E2,3.35E2,2.82E2,2.08E2,3.58E2,2.32E2,3.65E2],"tree_param":{"num_deleted":"0","num_feature":"2","num_nodes":"31","size_leaf_vector":"1"}},{"base_weights":[-6.7361672E-3,-1.6267878E0,3.848554E-1,-2.1570787E0,-7.670889E-1,1.0191797E0,-6.094679E-1,-2.368133E0,-1.8927717E-1,3.9308986E-1,-1.1678257E0,4.7057834E-1,2.0889897E0,-1.5728624E0,3.0500382E-1,-2.4680948E-1,-1.393743E-1,-7.363666E-2,-3.0221412E-1,7.762494E-2,-1.5786625E-1,2.9236084E-1,1.0906829E-1,-2.4021088E-1,-1.0857167E-1,1.3605735E-1,-3.6781784E-2],"categories":[],"categories_nodes":[],"categories_segments":[],"categories_sizes":[],"default_left":[0,0,0,0,0,0,0,0,0,0,0,0,0,0,0,0,0,0,0,0,0,0,0,0,0,0,0],"id":15,"left_children":[1,3,5,7,9,11,13,15,-1,-1,17,19,21,23,25,-1,-1,-1,-1,-1,-1,-1,-1,-1,-1,-1,-1],"loss_changes":[2.3529758E3,3.2749854E2,1.884592E3,2.0396729E1,5.2608655E2,1.0695212E3,1.0259603E3,2.0326294E1,0E0,0E0,2.0259027E2,7.572826E2,5.1173218E2,2.2643933E2,4.2520612E2,0E0,0E0,0E0,0E0,0E0,0E0,0E0,0E0,0E0,0E0,0E0,0E0],"parents":[2147483647,0,0,1,1,2,2,3,3,4,4,5,5,6,6,7,7,10,10,11,11,12,12,13,13,14,14],"right_children":[2,4,6,8,10,12,14,16,-1,-1,18,20,22,24,26,-1,-1,-1,-1,-1,-1,-1,-1,-1,-1,-1,-1],"split_conditions":[6E0,4E0,1.8E1,5E0,2E0,1.4E1,4E0,3E0,-1.8927717E-1,3.9308986E-1,7E0,7E0,5E0,2E0,2E1,-2.4680948E-1,-1.393743E-1,-7.363666E-2,-3.0221412E-1,7.762494E-2,-1.5786625E-1,2.9236084E-1,1.0906829E-1,-2.4021088E-1,-1.0857167E-1,1.3605735E-1,-3.6781784E-2],"split_indices":[1,1,1,0,0,1,0,1,0,0,0,0,0,0,1,0,0,0,0,0,0,0,0,0,0,0,0],"split_type":[0,0,0,0,0,0,0,0,0,0,0,0,0,0,0,0,0,0,0,0,0,0,0,0,0,0,0],"sum_hessian":[3.707E3,7.21E2,2.986E3,4.45E2,2.76E2,1.823E3,1.163E3,2.43E2,2.02E2,2.1E1,2.55E2,1.206E3,6.17E2,5.66E2,5.97E2,2.19E2,2.4E1,2.08E2,4.7E1,1.05E3,1.56E2,3.35E2,2.82E2,2.08E2,3.58E2,2.32E2,3.65E2],"tree_param":{"num_deleted":"0","num_feature":"2","num_nodes":"27","size_leaf_vector":"1"}},{"base_weights":[-6.1938004E-3,-1.464882E0,3.463938E-1,-1.9426612E0,-6.903176E-1,6.7857623E-1,-1.2456633E0,-2.1329024E0,-1.704427E0,3.5556772E-1,-1.0525112E0,9.1743773E-1,6.2158536E-3,-1.9047921E0,-5.312369E-1,-2.2224073E-1,-1.2599432E-1,-1.4581163E-1,-1.7653503E-1,-6.630821E-2,-2.7262232E-1,4.234537E-2,1.8807408E-1,-1.4950323E-1,6.0799595E-2,-1.7847356E-1,-3.0003518E-1,-2.5459746E-2,-3.5226274E-1],"categories":[],"categories_nodes":[],"categories_segments":[],"categories_sizes":[],"default_left":[0,0,0,0,0,0,0,0,0,0,0,0,0,0,0,0,0,0,0,0,0,0,0,0,0,0,0,0,0],"id":16,"left_children":[1,3,5,7,9,11,13,15,17,-1,19,21,23,25,27,-1,-1,-1,-1,-1,-1,-1,-1,-1,-1,-1,-1,-1,-1],"loss_changes":[1.9075889E3,2.6584985E2,1.5805304E3,1.657837E1,4.2973297E2,3.97E2,2.4197198E2,1.6264526E1,4.7210693E-1,0E0,1.6505109E2,8.671654E2,5.872293E2,2.9894897E1,2.0515977E2,0E0,0E0,0E0,0E0,0E0,0E0,0E0,0E0,0E0,0E0,0E0,0E0,0E0,0E0],"parents":[2147483647,0,0,1,1,2,2,3,3,4,4,5,5,6,6,7,7,8,8,10,10,11,11,12,12,13,13,14,14],"right_children":[2,4,6,8,10,12,14,16,18,-1,20,22,24,26,28,-1,-1,-1,-1,-1,-1,-1,-1,-1,-1,-1,-1,-1,-1],"split_conditions":[6E0,4E0,2.1E1,5E0,2E0,1.8E1,4E0,3E0,1E0,3.5556772E-1,7E0,1.4E1,3E0,2.3E1,7E0,-2.2224073E-1,-1.2599432E-1,-1.4581163E-1,-1.7653503E-1,-6.630821E-2,-2.7262232E-1,4.234537E-2,1.8807408E-1,-1.4950323E-1,6.0799595E-2,-1.7847356E-1,-3.0003518E-1,-2.5459746E-2,-3.5226274E-1],"split_indices":[1,1,1,0,0,1,0,1,1,0,0,1,0,1,0,0,0,0,0,0,0,0,0,0,0,0,0,0,0],"split_type":[0,0,0,0,0,0,0,0,0,0,0,0,0,0,0,0,0,0,0,0,0,0,0,0,0,0,0,0,0],"sum_hessian":[3.707E3,7.21E2,2.986E3,4.45E2,2.76E2,2.471E3,5.15E2,2.43E2,2.02E2,2.1E1,2.55E2,1.823E3,6.48E2,2.67E2,2.48E2,2.19E2,2.4E1,4.5E1,1.57E2,2.08E2,4.7E1,1.206E3,6.17E2,1.85E2,4.63E2,2.43E2,2.4E1,2.28E2,2E1],"tree_param":{"num_deleted":"0","num_feature":"2","num_nodes":"29","size_leaf_vector":"1"}},{"base_weights":[-5.943389E-3,-1.3192996E0,3.115153E-1,-1.7498986E0,-6.2122595E-1,6.107761E-1,-1.1227566E0,-1.9210393E0,-1.5355722E0,3.2162714E-1,-9.485842E-1,9.4172734E-1,1.1188635E-1,-1.7160984E0,-4.7963062E-1,-2.1054761E-1,-1.5512638E-1,-1.3154745E-1,-1.5899323E-1,-5.970913E-2,-2.4592808E-1,1.355069E-1,-1.1761221E-2,-2.0177983E-1,3.7584964E-2,-1.3194369E-1,-1.9839042E-1,-2.2924934E-2,-3.1871393E-1],"categories":[],"categories_nodes":[],"categories_segments":[],"categories_sizes":[],"default_left":[0,0,0,0,0,0,0,0,0,0,0,0,0,0,0,0,0,0,0,0,0,0,0,0,0,0,0,0,0],"id":17,"left_children":[1,3,5,7,9,11,13,15,17,-1,19,21,23,25,27,-1,-1,-1,-1,-1,-1,-1,-1,-1,-1,-1,-1,-1,-1],"loss_changes":[1.546411E3,2.1593872E2,1.28277E3,1.3409424E1,3.510284E2,4.08042E2,1.9607916E2,1.3374756E1,3.373108E-1,0E0,1.3446733E2,6.5083276E2,5.5560876E2,2.585144E1,1.680688E2,0E0,0E0,0E0,0E0,0E0,0E0,0E0,0E0,0E0,0E0,0E0,0E0,0E0,0E0],"parents":[2147483647,0,0,1,1,2,2,3,3,4,4,5,5,6,6,7,7,8,8,10,10,11,11,12,12,13,13,14,14],"right_children":[2,4,6,8,10,12,14,16,18,-1,20,22,24,26,28,-1,-1,-1,-1,-1,-1,-1,-1,-1,-1,-1,-1,-1,-1],"split_conditions":[6E0,4E0,2.1E1,5E0,2E0,5E0,4E0,2E0,1E0,3.2162714E-1,7E0,1.8E1,8E0,2.2E1,7E0,-2.1054761E-1,-1.5512638E-1,-1.3154745E-1,-1.5899323E-1,-5.970913E-2,-2.4592808E-1,1.355069E-1,-1.1761221E-2,-2.0177983E-1,3.7584964E-2,-1.3194369E-1,-1.9839042E-1,-2.2924934E-2,-3.1871393E-1],"split_indices":[1,1,1,0,0,0,0,1,1,0,0,1,1,1,0,0,0,0,0,0,0,0,0,0,0,0,0,0,0],"split_type":[0,0,0,0,0,0,0,0,0,0,0,0,0,0,0,0,0,0,0,0,0,0,0,0,0,0,0,0,0],"sum_hessian":[3.707E3,7.21E2,2.986E3,4.45E2,2.76E2,2.471E3,5.15E2,2.43E2,2.02E2,2.1E1,2.55E2,1.485E3,9.86E2,2.67E2,2.48E2,1.59E2,8.4E1,4.5E1,1.57E2,2.08E2,4.7E1,1.068E3,4.17E2,1.08E2,8.78E2,1.1E2,1.57E2,2.28E2,2E1],"tree_param":{"num_deleted":"0","num_feature":"2","num_nodes":"29","size_leaf_vector":"1"}},{"base_weights":[-5.71386E-3,-1.1882563E0,2.801252E-1,-1.5763799E0,-5.590453E-1,5.49682E-1,-1.011783E0,-1.6897316E0,-1.3055804E0,2.9092643E-1,-8.549194E-1,8.476374E-1,1.00531705E-1,-1.545721E0,-4.3303913E-1,-1.7447905E-1,-9.900668E-2,-6.6766016E-2,-1.4228311E-1,-2.5745317E-2,-1.585226E-1,1.2196882E-1,-1.0587896E-2,-3.1342277E-1,2.4761545E-2,-1.4393716E-1,-2.521863E-1,-2.0642405E-2,-2.883602E-1],"categories":[],"categories_nodes":[],"categories_segments":[],"categories_sizes":[],"default_left":[0,0,0,0,0,0,0,0,0,0,0,0,0,0,0,0,0,0,0,0,0,0,0,0,0,0,0,0,0],"id":18,"left_children":[1,3,5,7,9,11,13,15,17,-1,19,21,23,25,27,-1,-1,-1,-1,-1,-1,-1,-1,-1,-1,-1,-1,-1,-1],"loss_changes":[1.2536992E3,1.7543951E2,1.040757E3,1.1484131E1,2.8673984E2,3.307345E2,1.5878156E2,1.0253174E1,9.222382E0,0E0,1.1129329E2,5.2729724E2,4.7037143E2,2.4191772E1,1.3768304E2,0E0,0E0,0E0,0E0,0E0,0E0,0E0,0E0,0E0,0E0,0E0,0E0,0E0,0E0],"parents":[2147483647,0,0,1,1,2,2,3,3,4,4,5,5,6,6,7,7,8,8,10,10,11,11,12,12,13,13,14,14],"right_children":[2,4,6,8,10,12,14,16,18,-1,20,22,24,26,28,-1,-1,-1,-1,-1,-1,-1,-1,-1,-1,-1,-1,-1,-1],"split_conditions":[6E0,4E0,2.1E1,7E0,2E0,5E0,4E0,3E0,1E0,2.9092643E-1,5E0,1.8E1,7E0,2.3E1,7E0,-1.7447905E-1,-9.900668E-2,-6.6766016E-2,-1.4228311E-1,-2.5745317E-2,-1.585226E-1,1.2196882E-1,-1.0587896E-2,-3.1342277E-1,2.4761545E-2,-1.4393716E-1,-2.521863E-1,-2.0642405E-2,-2.883602E-1],"split_indices":[1,1,1,0,0,0,0,1,1,0,0,1,1,1,0,0,0,0,0,0,0,0,0,0,0,0,0,0,0],"split_type":[0,0,0,0,0,0,0,0,0,0,0,0,0,0,0,0,0,0,0,0,0,0,0,0,0,0,0,0,0],"sum_hessian":[3.707E3,7.21E2,2.986E3,4.45E2,2.76E2,2.471E3,5.15E2,3.1E2,1.35E2,2.1E1,2.55E2,1.485E3,9.86E2,2.67E2,2.48E2,2.86E2,2.4E1,2.2E1,1.13E2,1.41E2,1.14E2,1.068E3,4.17E2,4.2E1,9.44E2,2.43E2,2.4E1,2.28E2,2E1],"tree_param":{"num_deleted":"0","num_feature":"2","num_nodes":"29","size_leaf_vector":"1"}},{"base_weights":[-5.4818825E-3,-1.0699512E0,2.518172E-1,-1.4198239E0,-5.0275564E-1,4.9464205E-1,-9.119713E-1,-1.5640935E0,-1.239422E0,2.631562E-1,-7.7014714E-1,7.629483E-1,9.018641E-2,-3.6144572E-1,-1.4083451E0,-1.7228559E-1,-1.2468457E-1,-1.0676159E-1,-1.281597E-1,-4.6948034E-2,-2.0632558E-1,4.505838E-2,1.7280577E-1,-1.7120944E-1,3.1357482E-2,-1.5100541E-2,-2.6089728E-1,-1.6070597E-1,-4.0143568E-2],"categories":[],"categories_nodes":[],"categories_segments":[],"categories_sizes":[],"default_left":[0,0,0,0,0,0,0,0,0,0,0,0,0,0,0,0,0,0,0,0,0,0,0,0,0,0,0,0,0],"id":19,"left_children":[1,3,5,7,9,11,13,15,17,-1,19,21,23,25,27,-1,-1,-1,-1,-1,-1,-1,-1,-1,-1,-1,-1,-1,-1],"loss_changes":[1.0158423E3,1.4256439E2,8.445676E2,9.669312E0,2.3417761E2,2.6818756E2,1.4049643E2,1.0141357E1,1.0266113E-1,0E0,9.856282E1,4.471997E2,3.9791162E2,1.1595674E2,5.3578552E1,0E0,0E0,0E0,0E0,0E0,0E0,0E0,0E0,0E0,0E0,0E0,0E0,0E0,0E0],"parents":[2147483647,0,0,1,1,2,2,3,3,4,4,5,5,6,6,7,7,8,8,10,10,11,11,12,12,13,13,14,14],"right_children":[2,4,6,8,10,12,14,16,18,-1,20,22,24,26,28,-1,-1,-1,-1,-1,-1,-1,-1,-1,-1,-1,-1,-1,-1],"split_conditions":[6E0,4E0,2.1E1,5E0,2E0,5E0,2.2E1,2E0,1E0,2.631562E-1,7E0,4E0,8E0,7E0,5E0,-1.7228559E-1,-1.2468457E-1,-1.0676159E-1,-1.281597E-1,-4.6948034E-2,-2.0632558E-1,4.505838E-2,1.7280577E-1,-1.7120944E-1,3.1357482E-2,-1.5100541E-2,-2.6089728E-1,-1.6070597E-1,-4.0143568E-2],"split_indices":[1,1,1,0,0,0,1,1,1,0,0,0,1,0,0,0,0,0,0,0,0,0,0,0,0,0,0,0,0],"split_type":[0,0,0,0,0,0,0,0,0,0,0,0,0,0,0,0,0,0,0,0,0,0,0,0,0,0,0,0,0],"sum_hessian":[3.707E3,7.21E2,2.986E3,4.45E2,2.76E2,2.471E3,5.15E2,2.43E2,2.02E2,2.1E1,2.55E2,1.485E3,9.86E2,2.45E2,2.7E2,1.59E2,8.4E1,4.5E1,1.57E2,2.08E2,4.7E1,1.123E3,3.62E2,1.08E2,8.78E2,2.25E2,2E1,2.25E2,4.5E1],"tree_param":{"num_deleted":"0","num_feature":"2","num_nodes":"29","size_leaf_vector":"1"}},{"base_weights":[-5.18213E-3,-9.6367913E-1,2.2650184E-1,-1.3265946E0,-5.137811E-1,6.2675697E-1,-4.0089664E-1,-1.4744947E0,-1.138458E0,3.5702914E-2,-1.2546487E0,1.9253278E-1,1.473815E0,-1.1021013E0,2.6462832E-1,-1.2800154E-1,-1.5807794E-1,-9.631753E-2,-1.18975095E-1,-2.1090487E-2,7.961943E-2,-9.124652E-2,-1.5647027E-1,4.3884985E-2,-1.4576058E-1,1.9425952E-1,2.3704642E-2,-1.7529316E-1,-7.201358E-2,8.3311014E-2,-5.1921226E-2],"categories":[],"categories_nodes":[],"categories_segments":[],"categories_sizes":[],"default_left":[0,0,0,0,0,0,0,0,0,0,0,0,0,0,0,0,0,0,0,0,0,0,0,0,0,0,0,0,0,0,0],"id":20,"left_children":[1,3,5,7,9,11,13,15,17,19,21,23,25,27,29,-1,-1,-1,-1,-1,-1,-1,-1,-1,-1,-1,-1,-1,-1,-1,-1],"loss_changes":[8.236479E2,1.1720294E2,7.503451E2,9.423767E0,1.3194354E2,6.706071E2,5.434946E2,2.5240173E0,4.723816E-1,3.5238476E1,1.3213409E1,4.9123358E2,3.5783923E2,1.3969086E2,2.6690085E2,0E0,0E0,0E0,0E0,0E0,0E0,0E0,0E0,0E0,0E0,0E0,0E0,0E0,0E0,0E0,0E0],"parents":[2147483647,0,0,1,1,2,2,3,3,4,4,5,5,6,6,7,7,8,8,9,9,10,10,11,11,12,12,13,13,14,14],"right_children":[2,4,6,8,10,12,14,16,18,20,22,24,26,28,30,-1,-1,-1,-1,-1,-1,-1,-1,-1,-1,-1,-1,-1,-1,-1,-1],"split_conditions":[6E0,3E0,1.8E1,5E0,5E0,1.4E1,4E0,2E0,1E0,4E0,7E0,7E0,1.7E1,2E0,6E0,-1.2800154E-1,-1.5807794E-1,-9.631753E-2,-1.18975095E-1,-2.1090487E-2,7.961943E-2,-9.124652E-2,-1.5647027E-1,4.3884985E-2,-1.4576058E-1,1.9425952E-1,2.3704642E-2,-1.7529316E-1,-7.201358E-2,8.3311014E-2,-5.1921226E-2],"split_indices":[1,1,1,0,0,1,0,0,1,0,0,0,1,0,0,0,0,0,0,0,0,0,0,0,0,0,0,0,0,0,0],"split_type":[0,0,0,0,0,0,0,0,0,0,0,0,0,0,0,0,0,0,0,0,0,0,0,0,0,0,0,0,0,0,0],"sum_hessian":[3.707E3,7.21E2,2.986E3,3.98E2,3.23E2,1.823E3,1.163E3,2.19E2,1.79E2,1.86E2,1.37E2,1.206E3,6.17E2,5.66E2,5.97E2,8.2E1,1.37E2,4.5E1,1.34E2,1.41E2,4.5E1,6.7E1,7E1,1.05E3,1.56E2,4.47E2,1.7E2,2.08E2,3.58E2,3.46E2,2.51E2],"tree_param":{"num_deleted":"0","num_feature":"2","num_nodes":"31","size_leaf_vector":"1"}},{"base_weights":[-4.8768986E-3,-8.6826766E-1,2.0381846E-1,-1.1951917E0,-4.629869E-1,5.641453E-1,-3.6099252E-1,-1.3283455E0,-1.0258082E0,3.244555E-2,-1.1309787E0,1.731957E-1,1.326786E0,-9.923273E-1,2.3821783E-1,-1.1535561E-1,-1.423847E-1,-8.689517E-2,-1.0716571E-1,7.3769644E-2,-1.9624447E-2,-8.2256034E-2,-1.4104362E-1,3.9500725E-2,-1.3127731E-1,1.9792657E-1,5.4742247E-2,-1.5784773E-1,-6.483226E-2,1.0188079E-1,-2.5936604E-2],"categories":[],"categories_nodes":[],"categories_segments":[],"categories_sizes":[],"default_left":[0,0,0,0,0,0,0,0,0,0,0,0,0,0,0,0,0,0,0,0,0,0,0,0,0,0,0,0,0,0,0],"id":21,"left_children":[1,3,5,7,9,11,13,15,17,19,21,23,25,27,29,-1,-1,-1,-1,-1,-1,-1,-1,-1,-1,-1,-1,-1,-1,-1,-1],"loss_changes":[6.683053E2,9.5108765E1,6.0810767E2,7.6364136E0,1.0726282E2,5.436033E2,4.4058026E2,2.0299072E0,3.6328125E-1,3.0304846E1,1.0734024E1,3.983517E2,3.1318115E2,1.133056E2,2.325328E2,0E0,0E0,0E0,0E0,0E0,0E0,0E0,0E0,0E0,0E0,0E0,0E0,0E0,0E0,0E0,0E0],"parents":[2147483647,0,0,1,1,2,2,3,3,4,4,5,5,6,6,7,7,8,8,9,9,10,10,11,11,12,12,13,13,14,14],"right_children":[2,4,6,8,10,12,14,16,18,20,22,24,26,28,30,-1,-1,-1,-1,-1,-1,-1,-1,-1,-1,-1,-1,-1,-1,-1,-1],"split_conditions":[6E0,3E0,1.8E1,5E0,5E0,1.4E1,4E0,2E0,1E0,2E0,7E0,7E0,5E0,2E0,2E1,-1.1535561E-1,-1.423847E-1,-8.689517E-2,-1.0716571E-1,7.3769644E-2,-1.9624447E-2,-8.2256034E-2,-1.4104362E-1,3.9500725E-2,-1.3127731E-1,1.9792657E-1,5.4742247E-2,-1.5784773E-1,-6.483226E-2,1.0188079E-1,-2.5936604E-2],"split_indices":[1,1,1,0,0,1,0,0,1,0,0,0,0,0,1,0,0,0,0,0,0,0,0,0,0,0,0,0,0,0,0],"split_type":[0,0,0,0,0,0,0,0,0,0,0,0,0,0,0,0,0,0,0,0,0,0,0,0,0,0,0,0,0,0,0],"sum_hessian":[3.707E3,7.21E2,2.986E3,3.98E2,3.23E2,1.823E3,1.163E3,2.19E2,1.79E2,1.86E2,1.37E2,1.206E3,6.17E2,5.66E2,5.97E2,8.2E1,1.37E2,4.5E1,1.34E2,4.5E1,1.41E2,6.7E1,7E1,1.05E3,1.56E2,3.35E2,2.82E2,2.08E2,3.58E2,2.32E2,3.65E2],"tree_param":{"num_deleted":"0","num_feature":"2","num_nodes":"31","size_leaf_vector":"1"}},{"base_weights":[-4.55309E-3,-1.0430597E0,1.3739558E-1,-1.1358504E0,-8.2319957E-1,2.541123E-1,-1.1521636E0,-1.1941772E0,-9.667208E-2,-3.264306E-2,-9.162038E-1,3.7257957E-1,-5.2148885E-1,-1.3102002E0,-3.5067567E-1,-1.2609142E-1,-1.0195873E-1,-9.8390274E-2,-6.213369E-2,-1.6283112E-2,4.8578102E-2,-1.2793234E-1,2.7809737E-2,-1.1965928E-1,-1.717416E-1,5.987337E-2,-1.24591485E-1],"categories":[],"categories_nodes":[],"categories_segments":[],"categories_sizes":[],"default_left":[0,0,0,0,0,0,0,0,0,0,0,0,0,0,0,0,0,0,0,0,0,0,0,0,0,0,0],"id":22,"left_children":[1,3,5,7,9,11,13,15,-1,-1,17,19,21,23,25,-1,-1,-1,-1,-1,-1,-1,-1,-1,-1,-1,-1],"loss_changes":[5.467568E2,8.163788E0,4.914171E2,1.9135437E0,5.9843445E0,2.7520117E2,3.3866608E1,1.3592834E0,0E0,0E0,1.6643524E0,1.5748132E2,2.409195E2,8.40036E0,3.9843597E1,0E0,0E0,0E0,0E0,0E0,0E0,0E0,0E0,0E0,0E0,0E0,0E0],"parents":[2147483647,0,0,1,1,2,2,3,3,4,4,5,5,6,6,7,7,10,10,11,11,12,12,13,13,14,14],"right_children":[2,4,6,8,10,12,14,16,-1,-1,18,20,22,24,26,-1,-1,-1,-1,-1,-1,-1,-1,-1,-1,-1,-1],"split_conditions":[4E0,7E0,2.2E1,2E0,1E0,7E0,5E0,5E0,-9.667208E-2,-3.264306E-2,3E0,2E0,1.4E1,2.3E1,6E0,-1.2609142E-1,-1.0195873E-1,-9.8390274E-2,-6.213369E-2,-1.6283112E-2,4.8578102E-2,-1.2793234E-1,2.7809737E-2,-1.1965928E-1,-1.717416E-1,5.987337E-2,-1.24591485E-1],"split_indices":[1,0,1,1,1,0,0,0,0,0,1,0,1,1,0,0,0,0,0,0,0,0,0,0,0,0,0],"split_type":[0,0,0,0,0,0,0,0,0,0,0,0,0,0,0,0,0,0,0,0,0,0,0,0,0,0,0],"sum_hessian":[3.707E3,4.45E2,3.262E3,3.1E2,1.35E2,2.992E3,2.7E2,2.26E2,8.4E1,2.2E1,1.13E2,2.596E3,3.96E2,2.25E2,4.5E1,1.59E2,6.7E1,9E1,2.3E1,4.53E2,2.143E3,2.03E2,1.93E2,1.79E2,4.6E1,2.2E1,2.3E1],"tree_param":{"num_deleted":"0","num_feature":"2","num_nodes":"27","size_leaf_vector":"1"}},{"base_weights":[-4.3518967E-3,-7.2377867E-1,1.6954516E-1,-9.399149E-1,-3.7316304E-1,5.3119934E-1,-2.7898973E-1,-1.0233095E0,-7.4230003E-1,2.3456232E-1,-6.053511E-1,1.3985513E-1,1.5843717E0,-1.3256471E0,-3.3995915E-2,-1.0757639E-1,-8.711861E-2,-2.9520709E-2,-8.259916E-2,-2.2499414E-2,-1.06974535E-1,3.1824347E-2,-1.055215E-1,2.2190087E-1,8.985645E-2,-1.7945258E-1,-9.3437694E-2,1.7040754E-2,-9.199124E-2],"categories":[],"categories_nodes":[],"categories_segments":[],"categories_sizes":[],"default_left":[0,0,0,0,0,0,0,0,0,0,0,0,0,0,0,0,0,0,0,0,0,0,0,0,0,0,0,0,0],"id":23,"left_children":[1,3,5,7,9,11,13,15,17,-1,19,21,23,25,27,-1,-1,-1,-1,-1,-1,-1,-1,-1,-1,-1,-1,-1,-1],"loss_changes":[4.6401648E2,5.4362946E1,4.8468292E2,6.5904846E0,1.7628162E2,6.814793E2,3.420253E2,1.5444641E0,4.8449936E0,0E0,4.497802E1,2.5765204E2,1.9299304E2,4.473822E1,1.9609006E2,0E0,0E0,0E0,0E0,0E0,0E0,0E0,0E0,0E0,0E0,0E0,0E0,0E0,0E0],"parents":[2147483647,0,0,1,1,2,2,3,3,4,4,5,5,6,6,7,7,8,8,10,10,11,11,12,12,13,13,14,14],"right_children":[2,4,6,8,10,12,14,16,18,-1,20,22,24,26,28,-1,-1,-1,-1,-1,-1,-1,-1,-1,-1,-1,-1,-1,-1],"split_conditions":[6E0,4E0,1.7E1,7E0,2E0,1.4E1,2E0,2E0,1E0,2.3456232E-1,5E0,7E0,5E0,2E1,2.2E1,-1.0757639E-1,-8.711861E-2,-2.9520709E-2,-8.259916E-2,-2.2499414E-2,-1.06974535E-1,3.1824347E-2,-1.055215E-1,2.2190087E-1,8.985645E-2,-1.7945258E-1,-9.3437694E-2,1.7040754E-2,-9.199124E-2],"split_indices":[1,1,1,0,0,1,0,1,1,0,0,0,0,1,1,0,0,0,0,0,0,0,0,0,0,0,0,0,0],"split_type":[0,0,0,0,0,0,0,0,0,0,0,0,0,0,0,0,0,0,0,0,0,0,0,0,0,0,0,0,0],"sum_hessian":[3.707E3,7.21E2,2.986E3,4.45E2,2.76E2,1.653E3,1.333E3,3.1E2,1.35E2,2.1E1,2.55E2,1.206E3,4.47E2,2.52E2,1.081E3,2.26E2,8.4E1,2.2E1,1.13E2,1.41E2,1.14E2,1.05E3,1.56E2,2.31E2,2.16E2,1.13E2,1.39E2,8.79E2,2.02E2],"tree_param":{"num_deleted":"0","num_feature":"2","num_nodes":"29","size_leaf_vector":"1"}},{"base_weights":[-4.00069E-3,-6.516803E-1,1.5255393E-1,-8.766141E-1,-3.7266707E-1,4.782234E-1,-2.5135154E-1,-9.7767967E-1,-7.482195E-1,8.902117E-3,-8.8702047E-1,1.2580882E-1,1.4266301E0,-1.1941608E0,-3.066566E-2,-6.488951E-2,-1.0183988E-1,-6.825932E-2,-8.049024E-2,-2.189219E-2,7.119914E-2,-7.7549696E-2,-1.4109209E-1,2.8644968E-2,-9.503653E-2,2.4840133E-1,1.0793181E-1,-1.6166471E-1,-8.416066E-2,1.53386025E-2,-8.283741E-2],"categories":[],"categories_nodes":[],"categories_segments":[],"categories_sizes":[],"default_left":[0,0,0,0,0,0,0,0,0,0,0,0,0,0,0,0,0,0,0,0,0,0,0,0,0,0,0,0,0,0,0],"id":24,"left_children":[1,3,5,7,9,11,13,15,17,19,21,23,25,27,29,-1,-1,-1,-1,-1,-1,-1,-1,-1,-1,-1,-1,-1,-1,-1,-1],"loss_changes":[3.7608035E2,4.4985657E1,3.930292E2,4.4460144E0,6.359659E1,5.526409E2,2.7752167E2,2.2844849E0,1.20162964E-1,3.0109648E1,6.968796E0,2.089354E2,1.618432E2,3.6323578E1,1.5898586E2,0E0,0E0,0E0,0E0,0E0,0E0,0E0,0E0,0E0,0E0,0E0,0E0,0E0,0E0,0E0,0E0],"parents":[2147483647,0,0,1,1,2,2,3,3,4,4,5,5,6,6,7,7,8,8,9,9,10,10,11,11,12,12,13,13,14,14],"right_children":[2,4,6,8,10,12,14,16,18,20,22,24,26,28,30,-1,-1,-1,-1,-1,-1,-1,-1,-1,-1,-1,-1,-1,-1,-1,-1],"split_conditions":[6E0,3E0,1.7E1,5E0,5E0,1.4E1,2E0,1E0,2E0,4E0,5E0,7E0,3E0,2E1,2.2E1,-6.488951E-2,-1.0183988E-1,-6.825932E-2,-8.049024E-2,-2.189219E-2,7.119914E-2,-7.7549696E-2,-1.4109209E-1,2.8644968E-2,-9.503653E-2,2.4840133E-1,1.0793181E-1,-1.6166471E-1,-8.416066E-2,1.53386025E-2,-8.283741E-2],"split_indices":[1,1,1,0,0,1,0,1,1,0,1,0,0,1,1,0,0,0,0,0,0,0,0,0,0,0,0,0,0,0,0],"split_type":[0,0,0,0,0,0,0,0,0,0,0,0,0,0,0,0,0,0,0,0,0,0,0,0,0,0,0,0,0,0,0],"sum_hessian":[3.707E3,7.21E2,2.986E3,3.98E2,3.23E2,1.653E3,1.333E3,2.19E2,1.79E2,1.86E2,1.37E2,1.206E3,4.47E2,2.52E2,1.081E3,2.6E1,1.93E2,8.9E1,9E1,1.41E2,4.5E1,1.15E2,2.2E1,1.05E3,1.56E2,1.09E2,3.38E2,1.13E2,1.39E2,8.79E2,2.02E2],"tree_param":{"num_deleted":"0","num_feature":"2","num_nodes":"31","size_leaf_vector":"1"}},{"base_weights":[-3.7375768E-3,-5.871837E-1,1.3729084E-1,-7.897435E-1,-3.3592284E-1,4.0043926E-1,-2.7518344E-1,-8.6297864E-1,-6.401356E-1,6.831882E-1,-5.0274426E-1,1.1317327E-1,9.608432E-1,-7.800454E-1,2.0396695E-1,-7.441808E-2,-9.1214396E-2,-2.0167856E-2,-7.2371416E-2,-6.2844E-2,2.1426208E-1,-1.2015685E-1,-3.6678758E-2,2.5783235E-2,-8.559342E-2,1.5212873E-1,2.9204443E-2,-1.4444204E-1,-6.5166354E-2,7.329049E-2,-5.2518155E-2],"categories":[],"categories_nodes":[],"categories_segments":[],"categories_sizes":[],"default_left":[0,0,0,0,0,0,0,0,0,0,0,0,0,0,0,0,0,0,0,0,0,0,0,0,0,0,0,0,0,0,0],"id":25,"left_children":[1,3,5,7,9,11,13,15,17,19,21,23,25,27,29,-1,-1,-1,-1,-1,-1,-1,-1,-1,-1,-1,-1,-1,-1,-1,-1],"loss_changes":[3.0518408E2,3.6481125E1,3.24325E2,3.8192596E0,5.5426575E1,2.9352783E2,2.8173633E2,8.690033E-1,4.801197E0,8.9401215E1,2.6067032E1,1.6943025E2,2.3119714E2,4.7420258E1,2.3101813E2,0E0,0E0,0E0,0E0,0E0,0E0,0E0,0E0,0E0,0E0,0E0,0E0,0E0,0E0,0E0,0E0],"parents":[2147483647,0,0,1,1,2,2,3,3,4,4,5,5,6,6,7,7,8,8,9,9,10,10,11,11,12,12,13,13,14,14],"right_children":[2,4,6,8,10,12,14,16,18,20,22,24,26,28,30,-1,-1,-1,-1,-1,-1,-1,-1,-1,-1,-1,-1,-1,-1,-1,-1],"split_conditions":[6E0,3E0,1.8E1,6E0,2E0,1.4E1,4E0,2E0,1E0,4E0,3E0,7E0,5E0,1.9E1,6E0,-7.441808E-2,-9.1214396E-2,-2.0167856E-2,-7.2371416E-2,-6.2844E-2,2.1426208E-1,-1.2015685E-1,-3.6678758E-2,2.5783235E-2,-8.559342E-2,1.5212873E-1,2.9204443E-2,-1.4444204E-1,-6.5166354E-2,7.329049E-2,-5.2518155E-2],"split_indices":[1,1,1,0,0,1,0,0,1,1,0,0,0,1,0,0,0,0,0,0,0,0,0,0,0,0,0,0,0,0,0],"split_type":[0,0,0,0,0,0,0,0,0,0,0,0,0,0,0,0,0,0,0,0,0,0,0,0,0,0,0,0,0,0,0],"sum_hessian":[3.707E3,7.21E2,2.986E3,3.98E2,3.23E2,1.823E3,1.163E3,2.64E2,1.34E2,4.5E1,2.78E2,1.206E3,6.17E2,5.66E2,5.97E2,8.2E1,1.82E2,2.2E1,1.12E2,2.4E1,2.1E1,4.4E1,2.34E2,1.05E3,1.56E2,3.35E2,2.82E2,9E1,4.76E2,3.46E2,2.51E2],"tree_param":{"num_deleted":"0","num_feature":"2","num_nodes":"31","size_leaf_vector":"1"}},{"base_weights":[-3.453193E-3,-5.2883047E-1,1.23539045E-1,-7.114162E-1,-3.023473E-1,2.6452705E-1,-5.5213135E-1,-7.961303E-1,-6.0392433E-1,3.9577797E-2,-7.6348966E-1,4.5874548E-1,-2.8150838E-2,-4.7728425E-1,-2.2936563E-1,-4.9857296E-2,-8.3343916E-2,-5.4686457E-2,-6.537206E-2,-1.6758535E-2,6.78221E-2,-6.622531E-2,-1.2408789E-1,-2.5166614E-2,7.073923E-2,-1.5918197E-1,1.6578322E-2,-3.3624433E-3,-8.455124E-2],"categories":[],"categories_nodes":[],"categories_segments":[],"categories_sizes":[],"default_left":[0,0,0,0,0,0,0,0,0,0,0,0,0,0,0,0,0,0,0,0,0,0,0,0,0,0,0,0,0],"id":26,"left_children":[1,3,5,7,9,11,13,15,17,19,21,23,25,27,-1,-1,-1,-1,-1,-1,-1,-1,-1,-1,-1,-1,-1,-1,-1],"loss_changes":[2.4745877E2,2.9641464E1,2.8469193E2,3.1525269E0,5.1117294E1,1.4052992E2,6.61649E1,2.0267944E0,1.5394592E-1,2.4854383E1,5.847664E0,2.626674E2,2.995703E2,8.100213E1,0E0,0E0,0E0,0E0,0E0,0E0,0E0,0E0,0E0,0E0,0E0,0E0,0E0,0E0,0E0],"parents":[2147483647,0,0,1,1,2,2,3,3,4,4,5,5,6,6,7,7,8,8,9,9,10,10,11,11,12,12,13,13],"right_children":[2,4,6,8,10,12,14,16,18,20,22,24,26,28,-1,-1,-1,-1,-1,-1,-1,-1,-1,-1,-1,-1,-1,-1,-1],"split_conditions":[6E0,3E0,2.1E1,5E0,5E0,5E0,7E0,1E0,2E0,4E0,5E0,2E0,8E0,2.2E1,-2.2936563E-1,-4.9857296E-2,-8.3343916E-2,-5.4686457E-2,-6.537206E-2,-1.6758535E-2,6.78221E-2,-6.622531E-2,-1.2408789E-1,-2.5166614E-2,7.073923E-2,-1.5918197E-1,1.6578322E-2,-3.3624433E-3,-8.455124E-2],"split_indices":[1,1,1,0,0,0,0,1,1,0,1,0,1,1,0,0,0,0,0,0,0,0,0,0,0,0,0,0,0],"split_type":[0,0,0,0,0,0,0,0,0,0,0,0,0,0,0,0,0,0,0,0,0,0,0,0,0,0,0,0,0],"sum_hessian":[3.707E3,7.21E2,2.986E3,3.98E2,3.23E2,2.471E3,5.15E2,2.19E2,1.79E2,1.86E2,1.37E2,1.485E3,9.86E2,4.95E2,2E1,2.6E1,1.93E2,8.9E1,9E1,1.41E2,4.5E1,1.15E2,2.2E1,3.85E2,1.1E3,1.08E2,8.78E2,2.25E2,2.7E2],"tree_param":{"num_deleted":"0","num_feature":"2","num_nodes":"29","size_leaf_vector":"1"}},{"base_weights":[-3.325574E-3,-4.7649097E-1,1.11046284E-1,-6.2097776E-1,-2.4213138E-1,3.749426E-1,-2.1623674E-1,-6.8465084E-1,-4.7080648E-1,1.954094E-1,-4.2992368E-1,8.25379E-2,1.1619014E0,-1.0053532E0,-3.152075E-2,-5.853368E-2,-7.3314816E-2,-1.3007879E-2,-5.3541988E-2,-2.5945744E-2,-1.1632054E-1,2.090613E-2,-7.649693E-2,2.0745723E-1,8.623271E-2,-1.4368194E-1,-6.468353E-2,3.1954236E-2,-3.0573696E-2],"categories":[],"categories_nodes":[],"categories_segments":[],"categories_sizes":[],"default_left":[0,0,0,0,0,0,0,0,0,0,0,0,0,0,0,0,0,0,0,0,0,0,0,0,0,0,0,0,0],"id":27,"left_children":[1,3,5,7,9,11,13,15,17,-1,19,21,23,25,27,-1,-1,-1,-1,-1,-1,-1,-1,-1,-1,-1,-1,-1,-1],"loss_changes":[2.0071802E2,2.4297913E1,2.580646E2,3.9422607E0,1.15084404E2,3.8050684E2,1.9441537E2,1.0687866E0,2.9244747E0,0E0,3.1698147E1,1.2958592E2,1.2069995E2,3.820677E1,1.0425879E2,0E0,0E0,0E0,0E0,0E0,0E0,0E0,0E0,0E0,0E0,0E0,0E0,0E0,0E0],"parents":[2147483647,0,0,1,1,2,2,3,3,4,4,5,5,6,6,7,7,8,8,10,10,11,11,12,12,13,13,14,14],"right_children":[2,4,6,8,10,12,14,16,18,-1,20,22,24,26,28,-1,-1,-1,-1,-1,-1,-1,-1,-1,-1,-1,-1,-1,-1],"split_conditions":[6E0,4E0,1.7E1,7E0,2E0,1.4E1,2E0,2E0,1E0,1.954094E-1,7E0,7E0,3E0,2E1,2E1,-5.853368E-2,-7.3314816E-2,-1.3007879E-2,-5.3541988E-2,-2.5945744E-2,-1.1632054E-1,2.090613E-2,-7.649693E-2,2.0745723E-1,8.623271E-2,-1.4368194E-1,-6.468353E-2,3.1954236E-2,-3.0573696E-2],"split_indices":[1,1,1,0,0,1,0,0,1,0,0,0,0,1,1,0,0,0,0,0,0,0,0,0,0,0,0,0,0],"split_type":[0,0,0,0,0,0,0,0,0,0,0,0,0,0,0,0,0,0,0,0,0,0,0,0,0,0,0,0,0],"sum_hessian":[3.707E3,7.21E2,2.986E3,4.45E2,2.76E2,1.653E3,1.333E3,3.1E2,1.35E2,2.1E1,2.55E2,1.206E3,4.47E2,2.52E2,1.081E3,1.06E2,2.04E2,2.2E1,1.13E2,2.08E2,4.7E1,1.05E3,1.56E2,1.09E2,3.38E2,1.13E2,1.39E2,4.74E2,6.07E2],"tree_param":{"num_deleted":"0","num_feature":"2","num_nodes":"29","size_leaf_vector":"1"}},{"base_weights":[-3.0238375E-3,-4.2904308E-1,9.995203E-2,-5.786011E-1,-2.435409E-1,3.3759204E-1,-1.9476801E-1,-6.496504E-1,-4.885487E-1,5.758859E-1,-3.7777063E-1,7.4237786E-2,1.0463666E0,-9.0564144E-1,-2.8367147E-2,-3.799626E-2,-6.838356E-2,-4.3502737E-2,-5.361132E-2,-4.958285E-2,1.7675667E-1,-1.0423259E-1,-2.4890784E-2,3.433722E-2,-2.5112247E-2,1.8690017E-1,7.7634834E-2,-1.294398E-1,-5.8261376E-2,1.1030315E-2,-6.293597E-2],"categories":[],"categories_nodes":[],"categories_segments":[],"categories_sizes":[],"default_left":[0,0,0,0,0,0,0,0,0,0,0,0,0,0,0,0,0,0,0,0,0,0,0,0,0,0,0,0,0,0,0],"id":28,"left_children":[1,3,5,7,9,11,13,15,17,19,21,23,25,27,29,-1,-1,-1,-1,-1,-1,-1,-1,-1,-1,-1,-1,-1,-1,-1,-1],"loss_changes":[1.6271175E2,1.9889786E1,2.092671E2,2.2354736E0,3.585478E1,3.0865594E2,1.5777312E2,1.7684174E0,2.250061E-1,5.9624916E1,2.3633125E1,1.0577795E2,9.8061676E1,3.1017365E1,9.024311E1,0E0,0E0,0E0,0E0,0E0,0E0,0E0,0E0,0E0,0E0,0E0,0E0,0E0,0E0,0E0,0E0],"parents":[2147483647,0,0,1,1,2,2,3,3,4,4,5,5,6,6,7,7,8,8,9,9,10,10,11,11,12,12,13,13,14,14],"right_children":[2,4,6,8,10,12,14,16,18,20,22,24,26,28,30,-1,-1,-1,-1,-1,-1,-1,-1,-1,-1,-1,-1,-1,-1,-1,-1],"split_conditions":[6E0,3E0,1.7E1,5E0,2E0,1.4E1,2E0,1E0,2E0,4E0,3E0,1.1E1,3E0,2E1,2.2E1,-3.799626E-2,-6.838356E-2,-4.3502737E-2,-5.361132E-2,-4.958285E-2,1.7675667E-1,-1.0423259E-1,-2.4890784E-2,3.433722E-2,-2.5112247E-2,1.8690017E-1,7.7634834E-2,-1.294398E-1,-5.8261376E-2,1.1030315E-2,-6.293597E-2],"split_indices":[1,1,1,0,0,1,0,1,1,1,0,1,0,1,1,0,0,0,0,0,0,0,0,0,0,0,0,0,0,0,0],"split_type":[0,0,0,0,0,0,0,0,0,0,0,0,0,0,0,0,0,0,0,0,0,0,0,0,0,0,0,0,0,0,0],"sum_hessian":[3.707E3,7.21E2,2.986E3,3.98E2,3.23E2,1.653E3,1.333E3,2.19E2,1.79E2,4.5E1,2.78E2,1.206E3,4.47E2,2.52E2,1.081E3,2.6E1,1.93E2,8.9E1,9E1,2.4E1,2.1E1,4.4E1,2.34E2,6.6E2,5.46E2,1.09E2,3.38E2,1.13E2,1.39E2,8.79E2,2.02E2],"tree_param":{"num_deleted":"0","num_feature":"2","num_nodes":"31","size_leaf_vector":"1"}},{"base_weights":[-2.7677368E-3,-3.8642326E-1,8.996814E-2,-5.21251E-1,-2.191927E-1,3.0399808E-1,-1.7547075E-1,-5.730448E-1,-4.1572073E-1,6.4975E-2,-6.0267216E-1,6.682135E-2,9.423202E-1,-8.1581926E-1,-2.55783E-2,-4.6293147E-2,-6.1985552E-2,-7.6025254E-3,-4.8118334E-2,-1.2875684E-2,6.616043E-2,-5.0411105E-2,-1.07356004E-1,1.8124713E-2,-6.996011E-2,1.3585262E-1,4.930019E-2,-1.1660936E-1,-5.247686E-2,8.0597475E-3,-8.037317E-2],"categories":[],"categories_nodes":[],"categories_segments":[],"categories_sizes":[],"default_left":[0,0,0,0,0,0,0,0,0,0,0,0,0,0,0,0,0,0,0,0,0,0,0,0,0,0,0,0,0,0,0],"id":29,"left_children":[1,3,5,7,9,11,13,15,17,19,21,23,25,27,29,-1,-1,-1,-1,-1,-1,-1,-1,-1,-1,-1,-1,-1,-1,-1,-1],"loss_changes":[1.3196033E2,1.6164917E1,1.697504E2,1.942627E0,3.5346245E1,2.5034464E2,1.28021E2,1.0789948E0,2.9654598E0,2.1699785E1,5.863552E0,1.05978874E2,8.311026E1,2.5180801E1,8.946074E1,0E0,0E0,0E0,0E0,0E0,0E0,0E0,0E0,0E0,0E0,0E0,0E0,0E0,0E0,0E0,0E0],"parents":[2147483647,0,0,1,1,2,2,3,3,4,4,5,5,6,6,7,7,8,8,9,9,10,10,11,11,12,12,13,13,14,14],"right_children":[2,4,6,8,10,12,14,16,18,20,22,24,26,28,30,-1,-1,-1,-1,-1,-1,-1,-1,-1,-1,-1,-1,-1,-1,-1,-1],"split_conditions":[6E0,3E0,1.7E1,6E0,5E0,1.4E1,2E0,2E0,1E0,4E0,5E0,7E0,5E0,2E1,7E0,-4.6293147E-2,-6.1985552E-2,-7.6025254E-3,-4.8118334E-2,-1.2875684E-2,6.616043E-2,-5.0411105E-2,-1.07356004E-1,1.8124713E-2,-6.996011E-2,1.3585262E-1,4.930019E-2,-1.1660936E-1,-5.247686E-2,8.0597475E-3,-8.037317E-2],"split_indices":[1,1,1,0,0,1,0,0,1,0,1,0,0,1,0,0,0,0,0,0,0,0,0,0,0,0,0,0,0,0,0],"split_type":[0,0,0,0,0,0,0,0,0,0,0,0,0,0,0,0,0,0,0,0,0,0,0,0,0,0,0,0,0,0,0],"sum_hessian":[3.707E3,7.21E2,2.986E3,3.98E2,3.23E2,1.653E3,1.333E3,2.64E2,1.34E2,1.86E2,1.37E2,1.206E3,4.47E2,2.52E2,1.081E3,8.2E1,1.82E2,2.2E1,1.12E2,1.41E2,4.5E1,1.15E2,2.2E1,1.05E3,1.56E2,2.31E2,2.16E2,1.13E2,1.39E2,9.52E2,1.29E2],"tree_param":{"num_deleted":"0","num_feature":"2","num_nodes":"31","size_leaf_vector":"1"}},{"base_weights":[-2.5926977E-3,4.87207E-2,-6.5356266E-1,-3.481528E-1,1.5416566E-1,-7.860427E-1,1.1525175E-2,-4.5450976E-1,-1.7564969E-1,3.0864218E-1,-8.171223E-2,-6.8259305E-1,-1.16550826E-1,8.01196E-2,-7.4572295E-2,-5.0491966E-2,-3.3589214E-2,1.6111363E-1,-3.2851547E-2,6.258747E-3,1.0502628E-1,-1.4727591E-1,7.5008655E-3,-5.7748634E-2,-9.677359E-2],"categories":[],"categories_nodes":[],"categories_segments":[],"categories_sizes":[],"default_left":[0,0,0,0,0,0,0,0,0,0,0,0,0,0,0,0,0,0,0,0,0,0,0,0,0],"id":30,"left_children":[1,3,5,7,9,11,13,15,17,19,21,23,-1,-1,-1,-1,-1,-1,-1,-1,-1,-1,-1,-1,-1],"loss_changes":[1.23891945E2,1.4392816E2,2.3887093E1,1.3166626E1,9.902615E1,8.076202E0,2.8104404E1,2.4972687E0,7.618864E1,2.9956522E2,2.3468503E2,4.8358154E0,0E0,0E0,0E0,0E0,0E0,0E0,0E0,0E0,0E0,0E0,0E0,0E0,0E0],"parents":[2147483647,0,0,1,1,2,2,3,3,4,4,5,5,6,6,7,7,8,8,9,9,10,10,11,11],"right_children":[2,4,6,8,10,12,14,16,18,20,22,24,-1,-1,-1,-1,-1,-1,-1,-1,-1,-1,-1,-1,-1],"split_conditions":[2.2E1,6E0,5E0,4E0,5E0,2.3E1,6E0,7E0,2E0,4E0,8E0,4E0,-1.16550826E-1,8.01196E-2,-7.4572295E-2,-5.0491966E-2,-3.3589214E-2,1.6111363E-1,-3.2851547E-2,6.258747E-3,1.0502628E-1,-1.4727591E-1,7.5008655E-3,-5.7748634E-2,-9.677359E-2],"split_indices":[1,1,0,1,0,1,0,0,0,0,1,0,0,0,0,0,0,0,0,0,0,0,0,0,0],"split_type":[0,0,0,0,0,0,0,0,0,0,0,0,0,0,0,0,0,0,0,0,0,0,0,0,0],"sum_hessian":[3.707E3,3.437E3,2.7E2,7.21E2,2.716E3,2.25E2,4.5E1,4.45E2,2.76E2,1.641E3,1.075E3,1.79E2,4.6E1,2.2E1,2.3E1,3.1E2,1.35E2,2.1E1,2.55E2,1.233E3,4.08E2,1.08E2,9.67E2,1.33E2,4.6E1],"tree_param":{"num_deleted":"0","num_feature":"2","num_nodes":"25","size_leaf_vector":"1"}},{"base_weights":[-2.4007412E-3,4.3853264E-2,-5.8918625E-1,-3.1327635E-1,1.387387E-1,-7.0863795E-1,1.0493569E-2,-4.2391622E-1,-1.7605849E-1,2.7784607E-1,-7.36712E-2,-6.151923E-1,-1.0514374E-1,7.2456025E-2,-6.742576E-2,-2.8783137E-2,-4.5249607E-2,7.191997E-3,-5.108115E-2,2.6502815E-1,2.0933645E-2,-2.1371178E-1,1.2210696E-3,-5.201686E-2,-8.7302186E-2],"categories":[],"categories_nodes":[],"categories_segments":[],"categories_sizes":[],"default_left":[0,0,0,0,0,0,0,0,0,0,0,0,0,0,0,0,0,0,0,0,0,0,0,0,0],"id":31,"left_children":[1,3,5,7,9,11,13,15,17,19,21,23,-1,-1,-1,-1,-1,-1,-1,-1,-1,-1,-1,-1,-1],"loss_changes":[1.0066534E2,1.1654491E2,1.9419914E1,1.0886597E1,8.03018E1,6.5926437E0,2.298061E1,1.4215775E0,2.6932476E1,2.663271E2,1.9070697E2,3.955864E0,0E0,0E0,0E0,0E0,0E0,0E0,0E0,0E0,0E0,0E0,0E0,0E0,0E0],"parents":[2147483647,0,0,1,1,2,2,3,3,4,4,5,5,6,6,7,7,8,8,9,9,10,10,11,11],"right_children":[2,4,6,8,10,12,14,16,18,20,22,24,-1,-1,-1,-1,-1,-1,-1,-1,-1,-1,-1,-1,-1],"split_conditions":[2.2E1,6E0,5E0,3E0,5E0,2.3E1,6E0,1E0,5E0,7E0,7E0,4E0,-1.0514374E-1,7.2456025E-2,-6.742576E-2,-2.8783137E-2,-4.5249607E-2,7.191997E-3,-5.108115E-2,2.6502815E-1,2.0933645E-2,-2.1371178E-1,1.2210696E-3,-5.201686E-2,-8.7302186E-2],"split_indices":[1,1,0,1,0,1,0,1,0,1,1,0,0,0,0,0,0,0,0,0,0,0,0,0,0],"split_type":[0,0,0,0,0,0,0,0,0,0,0,0,0,0,0,0,0,0,0,0,0,0,0,0,0],"sum_hessian":[3.707E3,3.437E3,2.7E2,7.21E2,2.716E3,2.25E2,4.5E1,3.98E2,3.23E2,1.641E3,1.075E3,1.79E2,4.6E1,2.2E1,2.3E1,7.1E1,3.27E2,1.86E2,1.37E2,4.5E1,1.596E3,4.2E1,1.033E3,1.33E2,4.6E1],"tree_param":{"num_deleted":"0","num_feature":"2","num_nodes":"25","size_leaf_vector":"1"}},{"base_weights":[-2.2370275E-3,3.9455228E-2,-5.311512E-1,-2.82112E-1,1.2489213E-1,-6.388558E-1,9.55337E-3,-3.690142E-2,-3.3438903E-1,-2.617717E-1,1.98109E-1,-5.5444705E-1,-9.485309E-2,6.552542E-2,-6.0964134E-2,-3.4237336E-2,1.4504802E-1,-7.153526E-2,-2.6148299E-2,2.4997453E-1,-4.0859602E-2,7.633317E-2,7.92146E-3,-4.6853993E-2,-7.87577E-2],"categories":[],"categories_nodes":[],"categories_segments":[],"categories_sizes":[],"default_left":[0,0,0,0,0,0,0,0,0,0,0,0,0,0,0,0,0,0,0,0,0,0,0,0,0],"id":32,"left_children":[1,3,5,7,9,11,13,15,17,19,21,23,-1,-1,-1,-1,-1,-1,-1,-1,-1,-1,-1,-1,-1],"loss_changes":[8.1788376E1,9.448984E1,1.578817E1,9.242897E0,7.697099E1,5.381569E0,1.8790937E1,5.8653824E1,1.6338806E1,1.765846E2,1.534957E2,3.2359467E0,0E0,0E0,0E0,0E0,0E0,0E0,0E0,0E0,0E0,0E0,0E0,0E0,0E0],"parents":[2147483647,0,0,1,1,2,2,3,3,4,4,5,5,6,6,7,7,8,8,9,9,10,10,11,11],"right_children":[2,4,6,8,10,12,14,16,18,20,22,24,-1,-1,-1,-1,-1,-1,-1,-1,-1,-1,-1,-1,-1],"split_conditions":[2.2E1,6E0,5E0,2E0,2E0,2.3E1,6E0,4E0,3E0,7E0,3E0,4E0,-9.485309E-2,6.552542E-2,-6.0964134E-2,-3.4237336E-2,1.4504802E-1,-7.153526E-2,-2.6148299E-2,2.4997453E-1,-4.0859602E-2,7.633317E-2,7.92146E-3,-4.6853993E-2,-7.87577E-2],"split_indices":[1,1,0,0,0,1,0,1,0,1,0,0,0,0,0,0,0,0,0,0,0,0,0,0,0],"split_type":[0,0,0,0,0,0,0,0,0,0,0,0,0,0,0,0,0,0,0,0,0,0,0,0,0],"sum_hessian":[3.707E3,3.437E3,2.7E2,7.21E2,2.716E3,2.25E2,4.5E1,1.27E2,5.94E2,4.32E2,2.284E3,1.79E2,4.6E1,2.2E1,2.3E1,1.06E2,2.1E1,9.4E1,5E2,2.1E1,4.11E2,3.96E2,1.888E3,1.33E2,4.6E1],"tree_param":{"num_deleted":"0","num_feature":"2","num_nodes":"25","size_leaf_vector":"1"}},{"base_weights":[-1.9888768E-3,5.4014917E-2,-3.4853566E-1,-8.174764E-2,2.6072598E-1,-2.7808547E-1,-1.9959047E-1,6.230335E-3,-4.941466E-1,8.0976456E-1,-3.9921165E-2,-5.6667256E-1,6.0863987E-2,-3.8000908E-2,1.0006958E-2,-2.8397894E-2,-3.509563E-1,6.1889995E-2,1.9248761E-1,-7.9278365E-2,1.1247612E-2,-5.0423205E-2,-7.3282115E-2,5.67169E-2,-4.548575E-2],"categories":[],"categories_nodes":[],"categories_segments":[],"categories_sizes":[],"default_left":[0,0,0,0,0,0,0,0,0,0,0,0,0,0,0,0,0,0,0,0,0,0,0,0,0],"id":33,"left_children":[1,3,5,7,9,11,-1,13,15,17,19,21,23,-1,-1,-1,-1,-1,-1,-1,-1,-1,-1,-1,-1],"loss_changes":[7.198345E1,8.962846E1,5.9330605E1,6.995483E1,2.09007E2,4.8551445E1,0E0,5.766665E1,2.138422E2,9.4158936E1,9.405648E1,2.4108276E0,6.005272E1,0E0,0E0,0E0,0E0,0E0,0E0,0E0,0E0,0E0,0E0,0E0,0E0],"parents":[2147483647,0,0,1,1,2,2,3,3,4,4,5,5,7,7,8,8,9,9,10,10,11,11,12,12],"right_children":[2,4,6,8,10,12,-1,14,16,18,20,22,24,-1,-1,-1,-1,-1,-1,-1,-1,-1,-1,-1,-1],"split_conditions":[2.1E1,1.4E1,7E0,7E0,1.7E1,4E0,-1.9959047E-1,4E0,1.3E1,7E0,2E0,3E0,2.2E1,-3.8000908E-2,1.0006958E-2,-2.8397894E-2,-3.509563E-1,6.1889995E-2,1.9248761E-1,-7.9278365E-2,1.1247612E-2,-5.0423205E-2,-7.3282115E-2,5.67169E-2,-4.548575E-2],"split_indices":[1,1,0,0,1,0,0,1,1,0,0,0,1,0,0,0,0,0,0,0,0,0,0,0,0],"split_type":[0,0,0,0,0,0,0,0,0,0,0,0,0,0,0,0,0,0,0,0,0,0,0,0,0],"sum_hessian":[3.707E3,3.192E3,5.15E2,1.927E3,1.265E3,4.95E2,2E1,1.589E3,3.38E2,4.47E2,8.18E2,2.67E2,2.28E2,3.1E2,1.279E3,3.17E2,2.1E1,3.83E2,6.4E1,1.37E2,6.81E2,1.97E2,7E1,1.15E2,1.13E2],"tree_param":{"num_deleted":"0","num_feature":"2","num_nodes":"25","size_leaf_vector":"1"}},{"base_weights":[-1.9339594E-3,4.8543975E-2,-3.142869E-1,-9.179095E-2,2.1815456E-1,-2.5050372E-1,-1.8058182E-1,-1.2464914E-2,-1.5033191E0,5.492762E-1,-3.6012158E-2,-5.104668E-1,5.4826487E-2,-1.6458342E-2,2.590684E-2,-3.4943813E-1,1.1071592E-1,1.190724E-1,2.8687624E-2,-7.140798E-2,1.0124496E-2,-4.781071E-2,-8.058792E-2,5.1094104E-2,-4.09771E-2],"categories":[],"categories_nodes":[],"categories_segments":[],"categories_sizes":[],"default_left":[0,0,0,0,0,0,0,0,0,0,0,0,0,0,0,0,0,0,0,0,0,0,0,0,0],"id":34,"left_children":[1,3,5,7,9,11,-1,13,15,17,19,21,23,-1,-1,-1,-1,-1,-1,-1,-1,-1,-1,-1,-1],"loss_changes":[5.847903E1,7.602073E1,4.863708E1,1.9570647E2,1.2171528E2,3.9397785E1,0E0,6.8444115E1,4.87248E2,1.05360794E2,7.62963E1,2.1766434E0,4.8736687E1,0E0,0E0,0E0,0E0,0E0,0E0,0E0,0E0,0E0,0E0,0E0,0E0],"parents":[2147483647,0,0,1,1,2,2,3,3,4,4,5,5,7,7,8,8,9,9,10,10,11,11,12,12],"right_children":[2,4,6,8,10,12,-1,14,16,18,20,22,24,-1,-1,-1,-1,-1,-1,-1,-1,-1,-1,-1,-1],"split_conditions":[2.1E1,1.3E1,7E0,1.2E1,1.7E1,4E0,-1.8058182E-1,9E0,5E0,3E0,2E0,2.3E1,2.2E1,-1.6458342E-2,2.590684E-2,-3.4943813E-1,1.1071592E-1,1.190724E-1,2.8687624E-2,-7.140798E-2,1.0124496E-2,-4.781071E-2,-8.058792E-2,5.1094104E-2,-4.09771E-2],"split_indices":[1,1,0,1,1,0,0,1,0,0,0,1,1,0,0,0,0,0,0,0,0,0,0,0,0],"split_type":[0,0,0,0,0,0,0,0,0,0,0,0,0,0,0,0,0,0,0,0,0,0,0,0,0],"sum_hessian":[3.707E3,3.192E3,5.15E2,1.747E3,1.445E3,4.95E2,2E1,1.655E3,9.2E1,6.27E2,8.18E2,2.67E2,2.28E2,1.061E3,5.94E2,5.2E1,4E1,1.81E2,4.46E2,1.37E2,6.81E2,2.43E2,2.4E1,1.15E2,1.13E2],"tree_param":{"num_deleted":"0","num_feature":"2","num_nodes":"25","size_leaf_vector":"1"}},{"base_weights":[-1.8597324E-3,8.9523874E-2,-1.4634247E-1,-7.287663E-2,5.7914954E-1,-5.298081E-1,4.2954016E-2,1.4692932E-1,-5.1507366E-1,9.411137E-1,-1.7138806E-1,-2.6987204E-1,-9.505337E-1,1.4933072E0,-2.0351735E-1,-1.1289778E-2,6.843486E-2,-1.3301824E-1,-3.584909E-2,3.920764E-2,2.7709422E-1,1.2536391E-2,-6.720923E-2,-1.2731125E-2,-3.564267E-2,-1.5689252E-1,-5.9885867E-2,6.570205E-2,1.8955643E-1,-1.3089116E-1,-5.422965E-3],"categories":[],"categories_nodes":[],"categories_segments":[],"categories_sizes":[],"default_left":[0,0,0,0,0,0,0,0,0,0,0,0,0,0,0,0,0,0,0,0,0,0,0,0,0,0,0,0,0,0,0],"id":35,"left_children":[1,3,5,7,9,11,13,15,17,19,21,23,25,27,29,-1,-1,-1,-1,-1,-1,-1,-1,-1,-1,-1,-1,-1,-1,-1,-1],"loss_changes":[4.8971138E1,1.8070134E2,1.0433272E2,1.6599188E2,1.5392523E2,5.1690308E1,3.4454803E2,1.5940202E2,7.189049E1,3.8268762E2,2.7572472E1,3.594715E0,3.842302E1,4.585089E1,1.3590694E2,0E0,0E0,0E0,0E0,0E0,0E0,0E0,0E0,0E0,0E0,0E0,0E0,0E0,0E0,0E0,0E0],"parents":[2147483647,0,0,1,1,2,2,3,3,4,4,5,5,6,6,7,7,8,8,9,9,10,10,11,11,12,12,13,13,14,14],"right_children":[2,4,6,8,10,12,14,16,18,20,22,24,26,28,30,-1,-1,-1,-1,-1,-1,-1,-1,-1,-1,-1,-1,-1,-1,-1,-1],"split_conditions":[5E0,4E0,9E0,1.8E1,1.9E1,5E0,1.1E1,1.3E1,1.9E1,1.6E1,2.2E1,7E0,7E0,6E0,1.2E1,-1.1289778E-2,6.843486E-2,-1.3301824E-1,-3.584909E-2,3.920764E-2,2.7709422E-1,1.2536391E-2,-6.720923E-2,-1.2731125E-2,-3.564267E-2,-1.5689252E-1,-5.9885867E-2,6.570205E-2,1.8955643E-1,-1.3089116E-1,-5.422965E-3],"split_indices":[0,0,1,1,1,1,1,1,1,1,1,0,1,0,1,0,0,0,0,0,0,0,0,0,0,0,0,0,0,0,0],"split_type":[0,0,0,0,0,0,0,0,0,0,0,0,0,0,0,0,0,0,0,0,0,0,0,0,0,0,0,0,0,0,0],"sum_hessian":[3.707E3,2.271E3,1.436E3,1.706E3,5.65E2,4.74E2,9.62E2,1.14E3,5.66E2,3.81E2,1.84E2,2.94E2,1.8E2,1.39E2,8.23E2,7.69E2,3.71E2,9E1,4.76E2,2.94E2,8.7E1,1.16E2,6.8E1,1.12E2,1.82E2,6.4E1,1.16E2,4.6E1,9.3E1,9.7E1,7.26E2],"tree_param":{"num_deleted":"0","num_feature":"2","num_nodes":"31","size_leaf_vector":"1"}},{"base_weights":[-1.672942E-3,8.06373E-2,-1.3181016E-1,-6.565471E-2,5.2169704E-1,-4.7738555E-1,3.8781855E-2,1.3228613E-1,-4.638643E-1,8.4783053E-1,-1.5454459E-1,-2.4304889E-1,-8.5667795E-1,1.3457994E0,-1.8333131E-1,-1.016228E-2,6.1609685E-2,-1.1986257E-1,-3.2271724E-2,3.530018E-2,2.496997E-1,1.1293496E-2,-6.0585707E-2,-1.1469289E-2,-3.2097887E-2,-1.4144462E-1,-5.3948462E-2,1.7287408E-1,6.2193044E-2,-1.17935576E-1,-4.8814504E-3],"categories":[],"categories_nodes":[],"categories_segments":[],"categories_sizes":[],"default_left":[0,0,0,0,0,0,0,0,0,0,0,0,0,0,0,0,0,0,0,0,0,0,0,0,0,0,0,0,0,0,0],"id":36,"left_children":[1,3,5,7,9,11,13,15,17,19,21,23,25,27,29,-1,-1,-1,-1,-1,-1,-1,-1,-1,-1,-1,-1,-1,-1,-1,-1],"loss_changes":[3.972934E1,1.4663167E2,8.473311E1,1.3461041E2,1.2495953E2,4.2010788E1,2.7981122E2,1.2918687E2,5.8416443E1,3.108515E2,2.2401041E1,2.9140072E0,3.1259521E1,3.7732742E1,1.1034361E2,0E0,0E0,0E0,0E0,0E0,0E0,0E0,0E0,0E0,0E0,0E0,0E0,0E0,0E0,0E0,0E0],"parents":[2147483647,0,0,1,1,2,2,3,3,4,4,5,5,6,6,7,7,8,8,9,9,10,10,11,11,12,12,13,13,14,14],"right_children":[2,4,6,8,10,12,14,16,18,20,22,24,26,28,30,-1,-1,-1,-1,-1,-1,-1,-1,-1,-1,-1,-1,-1,-1,-1,-1],"split_conditions":[5E0,4E0,9E0,1.8E1,1.9E1,5E0,1.1E1,1.3E1,1.9E1,1.6E1,2.2E1,7E0,7E0,7E0,1.2E1,-1.016228E-2,6.1609685E-2,-1.1986257E-1,-3.2271724E-2,3.530018E-2,2.496997E-1,1.1293496E-2,-6.0585707E-2,-1.1469289E-2,-3.2097887E-2,-1.4144462E-1,-5.3948462E-2,1.7287408E-1,6.2193044E-2,-1.17935576E-1,-4.8814504E-3],"split_indices":[0,0,1,1,1,1,1,1,1,1,1,0,1,0,1,0,0,0,0,0,0,0,0,0,0,0,0,0,0,0,0],"split_type":[0,0,0,0,0,0,0,0,0,0,0,0,0,0,0,0,0,0,0,0,0,0,0,0,0,0,0,0,0,0,0],"sum_hessian":[3.707E3,2.271E3,1.436E3,1.706E3,5.65E2,4.74E2,9.62E2,1.14E3,5.66E2,3.81E2,1.84E2,2.94E2,1.8E2,1.39E2,8.23E2,7.69E2,3.71E2,9E1,4.76E2,2.94E2,8.7E1,1.16E2,6.8E1,1.12E2,1.82E2,6.4E1,1.16E2,9E1,4.9E1,9.7E1,7.26E2],"tree_param":{"num_deleted":"0","num_feature":"2","num_nodes":"31","size_leaf_vector":"1"}},{"base_weights":[-1.5033816E-3,-2.5834972E-1,3.360387E-2,-3.243828E-1,-1.3593252E-1,1.3252228E-1,-1.0953417E-1,-2.3325413E-1,-3.7589312E-1,1.2362068E-2,-1.7882805E-1,-4.171472E-3,5.847194E-1,-4.6852954E-2,-6.896982E-1,-2.1378612E-2,-2.8855775E-2,-2.445384E-2,-4.221009E-2,-2.2114886E-2,2.7883628E-3,8.9230975E-3,-5.9020557E-2,3.9149273E-2,1.7172477E-1,-4.9034838E-2,7.0934235E-3,1.8115746E-2,-1.5369092E-1],"categories":[],"categories_nodes":[],"categories_segments":[],"categories_sizes":[],"default_left":[0,0,0,0,0,0,0,0,0,0,0,0,0,0,0,0,0,0,0,0,0,0,0,0,0,0,0,0,0],"id":37,"left_children":[1,3,5,7,9,11,13,15,17,-1,19,21,23,25,27,-1,-1,-1,-1,-1,-1,-1,-1,-1,-1,-1,-1,-1,-1],"loss_changes":[3.3444344E1,3.561182E0,4.6215286E1,1.2689075E0,1.7812269E0,1.1930061E2,4.847911E1,5.351162E-2,1.0075207E0,0E0,1.1959224E0,8.122766E1,9.736565E1,6.298167E1,9.619223E1,0E0,0E0,0E0,0E0,0E0,0E0,0E0,0E0,0E0,0E0,0E0,0E0,0E0,0E0],"parents":[2147483647,0,0,1,1,2,2,3,3,4,4,5,5,6,6,7,7,8,8,10,10,11,11,12,12,13,13,14,14],"right_children":[2,4,6,8,10,12,14,16,18,-1,20,22,24,26,28,-1,-1,-1,-1,-1,-1,-1,-1,-1,-1,-1,-1,-1,-1],"split_conditions":[4E0,6E0,1.7E1,2E0,1E0,1.4E1,7E0,3E0,1E0,1.2362068E-2,3E0,7E0,7E0,2E0,2E1,-2.1378612E-2,-2.8855775E-2,-2.445384E-2,-4.221009E-2,-2.2114886E-2,2.7883628E-3,8.9230975E-3,-5.9020557E-2,3.9149273E-2,1.7172477E-1,-4.9034838E-2,7.0934235E-3,1.8115746E-2,-1.5369092E-1],"split_indices":[1,0,1,0,1,1,0,1,1,0,1,0,0,0,1,0,0,0,0,0,0,0,0,0,0,0,0,0,0],"split_type":[0,0,0,0,0,0,0,0,0,0,0,0,0,0,0,0,0,0,0,0,0,0,0,0,0,0,0,0,0],"sum_hessian":[3.707E3,4.45E2,3.262E3,2.88E2,1.57E2,1.929E3,1.333E3,1.06E2,1.82E2,2.2E1,1.35E2,1.482E3,4.47E2,1.204E3,1.29E2,8.2E1,2.4E1,4.9E1,1.33E2,1.12E2,2.3E1,1.279E3,2.03E2,3.83E2,6.4E1,2.52E2,9.52E2,6.4E1,6.5E1],"tree_param":{"num_deleted":"0","num_feature":"2","num_nodes":"29","size_leaf_vector":"1"}},{"base_weights":[-1.3907588E-3,7.196568E-2,-1.17371574E-1,-5.7587378E-2,4.6255773E-1,-4.1445428E-1,2.9286433E-2,1.1472455E-1,-4.0423697E-1,7.562665E-1,-1.464115E-1,-1.9853835E-1,-7.640717E-1,1.2278198E0,-1.7438342E-1,3.220832E-2,-3.2879125E-2,-1.07475996E-1,-2.7547006E-2,3.1440433E-2,2.228915E-1,9.470526E-3,-5.5313975E-2,-8.937773E-3,-2.6485864E-2,-1.263058E-1,-4.8032653E-2,4.1478697E-2,1.6212744E-1,-1.0555096E-1,-5.536727E-3],"categories":[],"categories_nodes":[],"categories_segments":[],"categories_sizes":[],"default_left":[0,0,0,0,0,0,0,0,0,0,0,0,0,0,0,0,0,0,0,0,0,0,0,0,0,0,0,0,0,0,0],"id":38,"left_children":[1,3,5,7,9,11,13,15,17,19,21,23,25,27,29,-1,-1,-1,-1,-1,-1,-1,-1,-1,-1,-1,-1,-1,-1,-1,-1],"loss_changes":[3.1555885E1,1.1499528E2,6.262159E1,1.0200866E2,1.01345245E2,3.5705093E1,2.3528734E2,1.0504005E2,4.8659393E1,2.4786952E2,1.819515E1,2.1119995E0,2.5020195E1,4.411232E1,8.635298E1,0E0,0E0,0E0,0E0,0E0,0E0,0E0,0E0,0E0,0E0,0E0,0E0,0E0,0E0,0E0,0E0],"parents":[2147483647,0,0,1,1,2,2,3,3,4,4,5,5,6,6,7,7,8,8,9,9,10,10,11,11,12,12,13,13,14,14],"right_children":[2,4,6,8,10,12,14,16,18,20,22,24,26,28,30,-1,-1,-1,-1,-1,-1,-1,-1,-1,-1,-1,-1,-1,-1,-1,-1],"split_conditions":[5E0,4E0,9E0,1.8E1,1.9E1,5E0,1.1E1,3E0,1.9E1,1.6E1,2.2E1,7E0,7E0,6E0,1.2E1,3.220832E-2,-3.2879125E-2,-1.07475996E-1,-2.7547006E-2,3.1440433E-2,2.228915E-1,9.470526E-3,-5.5313975E-2,-8.937773E-3,-2.6485864E-2,-1.263058E-1,-4.8032653E-2,4.1478697E-2,1.6212744E-1,-1.0555096E-1,-5.536727E-3],"split_indices":[0,0,1,1,1,1,1,0,1,1,1,0,1,0,1,0,0,0,0,0,0,0,0,0,0,0,0,0,0,0,0],"split_type":[0,0,0,0,0,0,0,0,0,0,0,0,0,0,0,0,0,0,0,0,0,0,0,0,0,0,0,0,0,0,0],"sum_hessian":[3.707E3,2.271E3,1.436E3,1.706E3,5.65E2,4.74E2,9.62E2,1.14E3,5.66E2,3.81E2,1.84E2,2.94E2,1.8E2,1.39E2,8.23E2,7.77E2,3.63E2,9E1,4.76E2,2.94E2,8.7E1,1.16E2,6.8E1,1.12E2,1.82E2,6.4E1,1.16E2,4.6E1,9.3E1,9.7E1,7.26E2],"tree_param":{"num_deleted":"0","num_feature":"2","num_nodes":"31","size_leaf_vector":"1"}},{"base_weights":[-1.2634953E-3,-2.346303E-1,3.0634409E-2,-3.082379E-1,-9.850862E-2,1.1164033E-1,-1.0247623E-1,-2.4230564E-1,-3.451041E-1,1.3713052E-2,-1.3763502E-1,2.697067E-1,-2.1590054E-1,-6.467231E-1,1.7434446E-2,-2.2448536E-2,-2.9177675E-2,-3.8668815E-2,-2.1284968E-2,-1.7639477E-2,5.0593535E-3,8.70739E-3,8.265332E-2,-3.952801E-2,-1.4376812E-2,-3.305425E-2,-9.7437486E-2,7.7418275E-2,-1.5707964E-2],"categories":[],"categories_nodes":[],"categories_segments":[],"categories_sizes":[],"default_left":[0,0,0,0,0,0,0,0,0,0,0,0,0,0,0,0,0,0,0,0,0,0,0,0,0,0,0,0,0],"id":39,"left_children":[1,3,5,7,9,11,13,15,17,-1,19,21,23,25,27,-1,-1,-1,-1,-1,-1,-1,-1,-1,-1,-1,-1,-1,-1],"loss_changes":[2.7609211E1,4.4383736E0,3.5195557E1,6.18845E-1,1.4755887E0,1.0510605E2,8.0608635E1,2.8830051E-2,9.241352E-1,0E0,1.0011382E0,1.391482E2,8.495905E0,2.2780083E1,1.3390167E2,0E0,0E0,0E0,0E0,0E0,0E0,0E0,0E0,0E0,0E0,0E0,0E0,0E0,0E0],"parents":[2147483647,0,0,1,1,2,2,3,3,4,4,5,5,6,6,7,7,8,8,10,10,11,11,12,12,13,13,14,14],"right_children":[2,4,6,8,10,12,14,16,18,-1,20,22,24,26,28,-1,-1,-1,-1,-1,-1,-1,-1,-1,-1,-1,-1,-1,-1],"split_conditions":[4E0,6E0,5E0,2E0,1E0,1.9E1,8E0,3E0,5E0,1.3713052E-2,3E0,4E0,2E0,6E0,1.1E1,-2.2448536E-2,-2.9177675E-2,-3.8668815E-2,-2.1284968E-2,-1.7639477E-2,5.0593535E-3,8.70739E-3,8.265332E-2,-3.952801E-2,-1.4376812E-2,-3.305425E-2,-9.7437486E-2,7.7418275E-2,-1.5707964E-2],"split_indices":[1,0,0,0,1,1,1,1,0,0,1,0,0,1,1,0,0,0,0,0,0,0,0,0,0,0,0,0,0],"split_type":[0,0,0,0,0,0,0,0,0,0,0,0,0,0,0,0,0,0,0,0,0,0,0,0,0,0,0,0,0],"sum_hessian":[3.707E3,4.45E2,3.262E3,2.88E2,1.57E2,2.028E3,1.234E3,1.06E2,1.82E2,2.2E1,1.35E2,1.368E3,6.6E2,2.22E2,1.012E3,8.2E1,2.4E1,1.37E2,4.5E1,1.12E2,2.3E1,1.031E3,3.37E2,1.88E2,4.72E2,1.14E2,1.08E2,1.89E2,8.23E2],"tree_param":{"num_deleted":"0","num_feature":"2","num_nodes":"29","size_leaf_vector":"1"}},{"base_weights":[-1.1753598E-3,-2.1141483E-1,2.7561378E-2,-2.7780014E-1,-8.865044E-2,1.00494914E-1,-9.228454E-2,-2.1855754E-1,-3.1092122E-1,1.2401371E-2,-1.2396386E-1,2.4280308E-1,-1.9439217E-1,-5.826357E-1,1.5751593E-2,-2.0230724E-2,-2.637662E-2,-3.482995E-2,-1.920273E-2,-1.5891122E-2,4.5745093E-3,7.837531E-3,7.441246E-2,-1.6574334E-2,-5.651294E-2,-2.977756E-2,-8.77831E-2,6.971725E-2,-1.413913E-2],"categories":[],"categories_nodes":[],"categories_segments":[],"categories_sizes":[],"default_left":[0,0,0,0,0,0,0,0,0,0,0,0,0,0,0,0,0,0,0,0,0,0,0,0,0,0,0,0,0],"id":40,"left_children":[1,3,5,7,9,11,13,15,17,-1,19,21,23,25,27,-1,-1,-1,-1,-1,-1,-1,-1,-1,-1,-1,-1,-1,-1],"loss_changes":[2.2408066E1,3.6101646E0,2.853046E1,4.9911308E-1,1.2019373E0,8.519386E1,6.54341E1,2.5246143E-2,7.4637794E-1,0E0,8.138685E-1,1.1278994E2,6.926943E0,1.8490524E1,1.0857107E2,0E0,0E0,0E0,0E0,0E0,0E0,0E0,0E0,0E0,0E0,0E0,0E0,0E0,0E0],"parents":[2147483647,0,0,1,1,2,2,3,3,4,4,5,5,6,6,7,7,8,8,10,10,11,11,12,12,13,13,14,14],"right_children":[2,4,6,8,10,12,14,16,18,-1,20,22,24,26,28,-1,-1,-1,-1,-1,-1,-1,-1,-1,-1,-1,-1,-1,-1],"split_conditions":[4E0,6E0,5E0,2E0,1E0,1.9E1,8E0,3E0,5E0,1.2401371E-2,3E0,4E0,2.3E1,6E0,1.1E1,-2.0230724E-2,-2.637662E-2,-3.482995E-2,-1.920273E-2,-1.5891122E-2,4.5745093E-3,7.837531E-3,7.441246E-2,-1.6574334E-2,-5.651294E-2,-2.977756E-2,-8.77831E-2,6.971725E-2,-1.413913E-2],"split_indices":[1,0,0,0,1,1,1,1,0,0,1,0,1,1,1,0,0,0,0,0,0,0,0,0,0,0,0,0,0],"split_type":[0,0,0,0,0,0,0,0,0,0,0,0,0,0,0,0,0,0,0,0,0,0,0,0,0,0,0,0,0],"sum_hessian":[3.707E3,4.45E2,3.262E3,2.88E2,1.57E2,2.028E3,1.234E3,1.06E2,1.82E2,2.2E1,1.35E2,1.368E3,6.6E2,2.22E2,1.012E3,8.2E1,2.4E1,1.37E2,4.5E1,1.12E2,2.3E1,1.031E3,3.37E2,6.14E2,4.6E1,1.14E2,1.08E2,1.89E2,8.23E2],"tree_param":{"num_deleted":"0","num_feature":"2","num_nodes":"29","size_leaf_vector":"1"}},{"base_weights":[-1.0989895E-3,-7.1222425E-2,7.4812904E-2,4.835404E-3,-5.323233E-1,4.92265E-1,-6.543698E-2,1.2331329E-1,-1.5280864E-1,-1.3549587E0,-1.0670226E-1,1.582748E-1,1.122593E0,-9.151185E-3,-5.8665967E-1,-2.6388247E-2,2.5752729E-2,-2.9870586E-3,-9.21494E-2,-3.201314E-1,1.0648408E-1,3.0581707E-2,-3.101993E-1,7.016925E-2,-1.8453947E-1,8.5836254E-2,1.8363471E-1,-3.768508E-2,8.847438E-3,1.9815939E-2,-1.3506988E-1],"categories":[],"categories_nodes":[],"categories_segments":[],"categories_sizes":[],"default_left":[0,0,0,0,0,0,0,0,0,0,0,0,0,0,0,0,0,0,0,0,0,0,0,0,0,0,0,0,0,0,0],"id":41,"left_children":[1,3,5,7,9,11,13,15,17,19,21,23,25,27,29,-1,-1,-1,-1,-1,-1,-1,-1,-1,-1,-1,-1,-1,-1,-1,-1],"loss_changes":[1.9743763E1,6.761817E1,1.043055E2,3.0948505E1,9.5441154E1,9.413682E1,3.9130768E1,4.922883E1,6.716246E1,4.1891513E2,2.2459502E2,3.2141074E2,2.7656052E1,4.328909E1,7.8219864E1,0E0,0E0,0E0,0E0,0E0,0E0,0E0,0E0,0E0,0E0,0E0,0E0,0E0,0E0,0E0,0E0],"parents":[2147483647,0,0,1,1,2,2,3,3,4,4,5,5,6,6,7,7,8,8,9,9,10,10,11,11,12,12,13,13,14,14],"right_children":[2,4,6,8,10,12,14,16,18,20,22,24,26,28,30,-1,-1,-1,-1,-1,-1,-1,-1,-1,-1,-1,-1,-1,-1,-1,-1],"split_conditions":[1.4E1,1.2E1,1.7E1,5E0,1.3E1,6E0,7E0,4E0,1.1E1,5E0,7E0,5E0,1.6E1,2E0,2E1,-2.6388247E-2,2.5752729E-2,-2.9870586E-3,-9.21494E-2,-3.201314E-1,1.0648408E-1,3.0581707E-2,-3.101993E-1,7.016925E-2,-1.8453947E-1,8.5836254E-2,1.8363471E-1,-3.768508E-2,8.847438E-3,1.9815939E-2,-1.3506988E-1],"split_indices":[1,1,1,0,1,0,0,1,1,0,0,0,1,0,1,0,0,0,0,0,0,0,0,0,0,0,0,0,0,0,0],"split_type":[0,0,0,0,0,0,0,0,0,0,0,0,0,0,0,0,0,0,0,0,0,0,0,0,0,0,0,0,0,0,0],"sum_hessian":[3.707E3,1.927E3,1.78E3,1.655E3,2.72E2,4.47E2,1.333E3,9.45E2,7.1E2,9.2E1,1.8E2,2.93E2,1.54E2,1.204E3,1.29E2,2.43E2,7.02E2,6.13E2,9.7E1,5.2E1,4E1,1.59E2,2.1E1,2.31E2,6.2E1,1.14E2,4E1,2.52E2,9.52E2,6.4E1,6.5E1],"tree_param":{"num_deleted":"0","num_feature":"2","num_nodes":"31","size_leaf_vector":"1"}},{"base_weights":[-1.1450676E-3,-1.3859537E-1,3.2078993E-2,7.345299E-2,-1.8397957E-1,-2.028366E-1,7.938926E-2,-1.7099579E-1,1.2590241E-1,-5.7735765E-1,-1.090197E-1,2.2081316E-1,-3.1291676E-1,4.9971467E-1,-1.0704563E-2,-1.5625004E-2,-2.1311192E-2,2.3361233E-3,-8.040541E-2,-5.2315234E-3,-2.0726945E-2,-4.3781262E-2,-6.470936E-4,1.12908006E-1,-4.561798E-2,-1.2904651E-1,1.6719656E-3],"categories":[],"categories_nodes":[],"categories_segments":[],"categories_sizes":[],"default_left":[0,0,0,0,0,0,0,0,0,0,0,0,0,0,0,0,0,0,0,0,0,0,0,0,0,0,0],"id":42,"left_children":[1,3,5,7,9,11,13,15,-1,17,19,-1,21,23,25,-1,-1,-1,-1,-1,-1,-1,-1,-1,-1,-1,-1],"loss_changes":[1.693761E1,6.9617834E0,3.3213383E1,3.731115E1,1.748216E1,1.3365622E2,9.418486E1,3.3151865E-2,0E0,1.2955963E1,2.7803273E0,0E0,1.8368599E1,2.6462045E2,7.193417E1,0E0,0E0,0E0,0E0,0E0,0E0,0E0,0E0,0E0,0E0,0E0,0E0],"parents":[2147483647,0,0,1,1,2,2,3,3,4,4,5,5,6,6,7,7,9,9,10,10,12,12,13,13,14,14],"right_children":[2,4,6,8,10,12,14,16,-1,18,20,-1,22,24,26,-1,-1,-1,-1,-1,-1,-1,-1,-1,-1,-1,-1],"split_conditions":[6E0,2E0,2E0,4E0,3E0,7E0,3E0,3E0,1.2590241E-1,1E0,7E0,2.2081316E-1,2E1,1.8E1,7E0,-1.5625004E-2,-2.1311192E-2,2.3361233E-3,-8.040541E-2,-5.2315234E-3,-2.0726945E-2,-4.3781262E-2,-6.470936E-4,1.12908006E-1,-4.561798E-2,-1.2904651E-1,1.6719656E-3],"split_indices":[1,0,0,1,0,1,0,1,0,1,0,0,1,1,1,0,0,0,0,0,0,0,0,0,0,0,0],"split_type":[0,0,0,0,0,0,0,0,0,0,0,0,0,0,0,0,0,0,0,0,0,0,0,0,0,0,0],"sum_hessian":[3.707E3,7.21E2,2.986E3,1.27E2,5.94E2,5E2,2.486E3,1.06E2,2.1E1,9.4E1,5E2,2.1E1,4.79E2,4.38E2,2.048E3,8.2E1,2.4E1,2.6E1,6.8E1,3.18E2,1.82E2,3.4E2,1.39E2,2.64E2,1.74E2,4.2E1,2.006E3],"tree_param":{"num_deleted":"0","num_feature":"2","num_nodes":"27","size_leaf_vector":"1"}},{"base_weights":[-1.0034031E-3,-6.6629134E-2,7.00395E-2,3.94176E-3,-4.9446347E-1,4.3773547E-1,-5.3497102E-2,6.1069142E-2,-2.5447756E-1,-1.212662E0,-1.22712485E-1,2.6266813E-1,1.4652451E0,-1.987559E-3,-5.3053945E-1,-2.0835226E-2,1.4103952E-2,-3.630423E-2,8.808731E-3,-2.869996E-1,9.593225E-2,2.4721123E-2,-2.807489E-1,1.0342342E-1,-4.6913438E-3,7.644202E-2,1.8568397E-1,-1.5546881E-2,1.9051319E-2,1.7700179E-2,-1.21932186E-1],"categories":[],"categories_nodes":[],"categories_segments":[],"categories_sizes":[],"default_left":[0,0,0,0,0,0,0,0,0,0,0,0,0,0,0,0,0,0,0,0,0,0,0,0,0,0,0,0,0,0,0],"id":43,"left_children":[1,3,5,7,9,11,13,15,17,19,21,23,25,27,29,-1,-1,-1,-1,-1,-1,-1,-1,-1,-1,-1,-1,-1,-1,-1,-1],"loss_changes":[1.7292265E1,5.821338E1,8.09234E1,2.446277E1,7.273974E1,8.0202866E1,3.2778305E1,2.9266947E1,1.1189119E1,3.3752573E2,1.8045645E2,9.177176E1,1.6419159E1,3.563165E1,6.357027E1,0E0,0E0,0E0,0E0,0E0,0E0,0E0,0E0,0E0,0E0,0E0,0E0,0E0,0E0,0E0,0E0],"parents":[2147483647,0,0,1,1,2,2,3,3,4,4,5,5,6,6,7,7,8,8,9,9,10,10,11,11,12,12,13,13,14,14],"right_children":[2,4,6,8,10,12,14,16,18,20,22,24,26,28,30,-1,-1,-1,-1,-1,-1,-1,-1,-1,-1,-1,-1,-1,-1,-1,-1],"split_conditions":[1.4E1,1.2E1,1.7E1,7E0,1.3E1,7E0,7E0,4E0,9E0,5E0,7E0,3E0,1.5E1,4E0,2E1,-2.0835226E-2,1.4103952E-2,-3.630423E-2,8.808731E-3,-2.869996E-1,9.593225E-2,2.4721123E-2,-2.807489E-1,1.0342342E-1,-4.6913438E-3,7.644202E-2,1.8568397E-1,-1.5546881E-2,1.9051319E-2,1.7700179E-2,-1.21932186E-1],"split_indices":[1,1,1,0,1,0,0,1,1,0,0,0,1,0,1,0,0,0,0,0,0,0,0,0,0,0,0,0,0,0,0],"split_type":[0,0,0,0,0,0,0,0,0,0,0,0,0,0,0,0,0,0,0,0,0,0,0,0,0,0,0,0,0,0,0],"sum_hessian":[3.707E3,1.927E3,1.78E3,1.655E3,2.72E2,4.47E2,1.333E3,1.356E3,2.99E2,9.2E1,1.8E2,3.83E2,6.4E1,1.204E3,1.29E2,3.1E2,1.046E3,2.27E2,7.2E1,5.2E1,4E1,1.59E2,2.1E1,1.09E2,2.74E2,2.4E1,4E1,6.7E2,5.34E2,6.4E1,6.5E1],"tree_param":{"num_deleted":"0","num_feature":"2","num_nodes":"31","size_leaf_vector":"1"}},{"base_weights":[-9.628893E-4,-6.021623E-2,6.318164E-2,3.526517E-3,-4.4665498E-1,3.9476764E-1,-4.822294E-2,5.4956786E-2,-2.2912149E-1,-1.0934507E0,-1.1185575E-1,9.891834E-2,9.5338005E-1,3.1234853E-2,-3.2696763E-1,-1.8758401E-2,1.2694842E-2,-7.218098E-4,-4.1063506E-2,-2.5884125E-1,8.6573035E-2,2.2264458E-2,-2.539501E-1,5.763499E-2,-1.6608126E-1,7.278796E-2,1.5626281E-1,-1.3994517E-2,3.424288E-2,-6.738955E-2,-1.7454987E-2],"categories":[],"categories_nodes":[],"categories_segments":[],"categories_sizes":[],"default_left":[0,0,0,0,0,0,0,0,0,0,0,0,0,0,0,0,0,0,0,0,0,0,0,0,0,0,0,0,0,0,0],"id":44,"left_children":[1,3,5,7,9,11,13,15,17,19,21,23,25,27,29,-1,-1,-1,-1,-1,-1,-1,-1,-1,-1,-1,-1,-1,-1,-1,-1],"loss_changes":[1.4097088E1,4.7493355E1,6.5809525E1,1.9826881E1,5.899494E1,7.394446E1,2.9556229E1,2.3718262E1,1.2080579E1,2.746286E2,1.4754611E2,2.4796164E2,2.0157364E1,5.539564E1,1.553425E1,0E0,0E0,0E0,0E0,0E0,0E0,0E0,0E0,0E0,0E0,0E0,0E0,0E0,0E0,0E0,0E0],"parents":[2147483647,0,0,1,1,2,2,3,3,4,4,5,5,6,6,7,7,8,8,9,9,10,10,11,11,12,12,13,13,14,14],"right_children":[2,4,6,8,10,12,14,16,18,20,22,24,26,28,30,-1,-1,-1,-1,-1,-1,-1,-1,-1,-1,-1,-1,-1,-1,-1,-1],"split_conditions":[1.4E1,1.2E1,1.7E1,7E0,1.3E1,6E0,6E0,4E0,4E0,5E0,7E0,5E0,1.6E1,4E0,1.9E1,-1.8758401E-2,1.2694842E-2,-7.218098E-4,-4.1063506E-2,-2.5884125E-1,8.6573035E-2,2.2264458E-2,-2.539501E-1,5.763499E-2,-1.6608126E-1,7.278796E-2,1.5626281E-1,-1.3994517E-2,3.424288E-2,-6.738955E-2,-1.7454987E-2],"split_indices":[1,1,1,0,1,0,0,1,1,0,0,0,1,0,1,0,0,0,0,0,0,0,0,0,0,0,0,0,0,0,0],"split_type":[0,0,0,0,0,0,0,0,0,0,0,0,0,0,0,0,0,0,0,0,0,0,0,0,0,0,0,0,0,0,0],"sum_hessian":[3.707E3,1.927E3,1.78E3,1.655E3,2.72E2,4.47E2,1.333E3,1.356E3,2.99E2,9.2E1,1.8E2,2.93E2,1.54E2,1.038E3,2.95E2,3.1E2,1.046E3,1.35E2,1.64E2,5.2E1,4E1,1.59E2,2.1E1,2.31E2,6.2E1,1.14E2,4E1,6.7E2,3.68E2,8.9E1,2.06E2],"tree_param":{"num_deleted":"0","num_feature":"2","num_nodes":"31","size_leaf_vector":"1"}},{"base_weights":[-9.734526E-4,1.5964849E-2,-2.1585503E-1,-5.442922E-2,1.0577544E-1,-2.780614E-1,9.446003E-2,3.1446752E-3,-4.034693E-1,-2.7710676E-1,1.8190363E-1,-1.7139606E-1,-5.1827967E-2,6.511602E-2,-4.4298016E-2,9.081184E-3,-1.1350269E-2,-9.8595835E-2,-1.01950215E-2,-5.1167157E-2,3.1315397E-2,3.882814E-2,-4.394187E-3,-3.1759113E-2,1.7025076E-2],"categories":[],"categories_nodes":[],"categories_segments":[],"categories_sizes":[],"default_left":[0,0,0,0,0,0,0,0,0,0,0,0,0,0,0,0,0,0,0,0,0,0,0,0,0],"id":45,"left_children":[1,3,5,7,9,11,13,15,17,19,21,23,-1,-1,-1,-1,-1,-1,-1,-1,-1,-1,-1,-1,-1],"loss_changes":[1.3499562E1,2.1741251E1,5.257534E0,3.874558E1,4.409323E1,5.7019577E0,1.4051331E1,1.6944801E1,4.78469E1,3.4912285E1,5.879162E1,7.945708E0,0E0,0E0,0E0,0E0,0E0,0E0,0E0,0E0,0E0,0E0,0E0,0E0,0E0],"parents":[2147483647,0,0,1,1,2,2,3,3,4,4,5,5,6,6,7,7,8,8,9,9,10,10,11,11],"right_children":[2,4,6,8,10,12,14,16,18,20,22,24,-1,-1,-1,-1,-1,-1,-1,-1,-1,-1,-1,-1,-1],"split_conditions":[2.2E1,1.4E1,5E0,1.2E1,2E0,4E0,6E0,5E0,1.3E1,2E1,5E0,3E0,-5.1827967E-2,6.511602E-2,-4.4298016E-2,9.081184E-3,-1.1350269E-2,-9.8595835E-2,-1.01950215E-2,-5.1167157E-2,3.1315397E-2,3.882814E-2,-4.394187E-3,-3.1759113E-2,1.7025076E-2],"split_indices":[1,1,0,1,0,0,0,0,1,1,0,0,0,0,0,0,0,0,0,0,0,0,0,0,0],"split_type":[0,0,0,0,0,0,0,0,0,0,0,0,0,0,0,0,0,0,0,0,0,0,0,0,0],"sum_hessian":[3.707E3,3.437E3,2.7E2,1.927E3,1.51E3,2.25E2,4.5E1,1.655E3,2.72E2,2.5E2,1.26E3,1.57E2,6.8E1,2.2E1,2.3E1,9.45E2,7.1E2,9.2E1,1.8E2,1.79E2,7.1E1,6.58E2,6.02E2,1.1E2,4.7E1],"tree_param":{"num_deleted":"0","num_feature":"2","num_nodes":"25","size_leaf_vector":"1"}},{"base_weights":[-9.142839E-4,2.1359276E-2,-1.3874096E-1,-4.9043734E-2,1.2855962E-1,-9.437692E-2,-1.1799705E-1,2.8290302E-3,-3.6352086E-1,-3.1774294E-1,2.1408847E-1,-2.52553E-1,9.114955E-2,-1.0442343E-2,8.564555E-3,-8.884221E-2,-9.181177E-3,-4.6078894E-2,7.248978E-2,7.515698E-2,1.0948875E-2,-1.6230045E-2,-5.0068613E-2,4.239547E-2,-2.482938E-2],"categories":[],"categories_nodes":[],"categories_segments":[],"categories_sizes":[],"default_left":[0,0,0,0,0,0,0,0,0,0,0,0,0,0,0,0,0,0,0,0,0,0,0,0,0],"id":46,"left_children":[1,3,5,7,9,11,-1,13,15,17,19,21,23,-1,-1,-1,-1,-1,-1,-1,-1,-1,-1,-1,-1],"loss_changes":[1.1386118E1,2.4104599E1,2.37243E1,3.1452103E1,4.8393456E1,1.4578564E1,0E0,1.4717991E1,3.885381E1,3.075972E1,5.967999E1,5.9205017E0,2.5975046E1,0E0,0E0,0E0,0E0,0E0,0E0,0E0,0E0,0E0,0E0,0E0,0E0],"parents":[2147483647,0,0,1,1,2,2,3,3,4,4,5,5,7,7,8,8,9,9,10,10,11,11,12,12],"right_children":[2,4,6,8,10,12,-1,14,16,18,20,22,24,-1,-1,-1,-1,-1,-1,-1,-1,-1,-1,-1,-1],"split_conditions":[2.1E1,1.4E1,7E0,1.2E1,2E0,4E0,-1.1799705E-1,6E0,1.3E1,2E1,3E0,3E0,2.2E1,-1.0442343E-2,8.564555E-3,-8.884221E-2,-9.181177E-3,-4.6078894E-2,7.248978E-2,7.515698E-2,1.0948875E-2,-1.6230045E-2,-5.0068613E-2,4.239547E-2,-2.482938E-2],"split_indices":[1,1,0,1,0,0,0,1,1,1,0,0,1,0,0,0,0,0,0,0,0,0,0,0,0],"split_type":[0,0,0,0,0,0,0,0,0,0,0,0,0,0,0,0,0,0,0,0,0,0,0,0,0],"sum_hessian":[3.707E3,3.192E3,5.15E2,1.927E3,1.265E3,4.95E2,2E1,1.655E3,2.72E2,2.03E2,1.062E3,2.67E2,2.28E2,7.21E2,9.34E2,9.2E1,1.8E2,1.79E2,2.4E1,1.72E2,8.9E2,1.97E2,7E1,1.15E2,1.13E2],"tree_param":{"num_deleted":"0","num_feature":"2","num_nodes":"25","size_leaf_vector":"1"}},{"base_weights":[-8.6420093E-4,4.831721E-3,-4.4464298E-2,4.6565294E-2,-5.981947E-2,-4.110462E-2,3.177085E-1,-3.089894E-1,5.3729404E-2,7.2730966E-3,-2.802304E-2,5.057303E-2,-1.2488069E-2,-6.630547E-2,1.095104E-1,1.6079264E-2,-5.0132778E-2],"categories":[],"categories_nodes":[],"categories_segments":[],"categories_sizes":[],"default_left":[0,0,0,0,0,0,0,0,0,0,0,0,0,0,0,0,0],"id":47,"left_children":[1,3,-1,5,7,9,11,13,15,-1,-1,-1,-1,-1,-1,-1,-1],"loss_changes":[9.374968E0,9.88332E0,0E0,5.292753E1,4.067359E1,4.5833363E1,4.533288E1,2.2443945E2,5.8793705E1,0E0,0E0,0E0,0E0,0E0,0E0,0E0,0E0],"parents":[2147483647,0,0,1,1,3,3,4,4,5,5,6,6,7,7,8,8],"right_children":[2,4,-1,6,8,10,12,14,16,-1,-1,-1,-1,-1,-1,-1,-1],"split_conditions":[2.3E1,5E0,-4.4464298E-2,4E0,6E0,1.8E1,1.9E1,1.9E1,2E1,7.2730966E-3,-2.802304E-2,5.057303E-2,-1.2488069E-2,-6.630547E-2,1.095104E-1,1.6079264E-2,-5.0132778E-2],"split_indices":[1,0,0,0,0,1,1,1,1,0,0,0,0,0,0,0,0],"split_type":[0,0,0,0,0,0,0,0,0,0,0,0,0,0,0,0,0],"sum_hessian":[3.707E3,3.661E3,4.6E1,2.225E3,1.436E3,1.682E3,5.43E2,4.49E2,9.87E2,1.14E3,5.42E2,3.81E2,1.62E2,3.59E2,9E1,8.28E2,1.59E2],"tree_param":{"num_deleted":"0","num_feature":"2","num_nodes":"17","size_leaf_vector":"1"}},{"base_weights":[-7.825541E-4,-5.0469633E-2,5.300603E-2,-2.8326355E-3,-3.3924764E-1,3.3633107E-1,-4.218334E-2,4.2541824E-2,-2.08067E-1,-7.962189E-1,-1.0257598E-1,7.121162E-2,8.3703285E-1,2.3284348E-2,-2.7184126E-1,-1.6647972E-2,1.0458878E-2,-8.3050305E-5,-3.7761908E-2,-2.1650417E-1,9.92655E-2,1.9937864E-2,-2.293947E-1,4.808872E-2,-1.4385653E-1,6.3328855E-2,1.3880955E-1,-1.1412281E-2,2.7308628E-2,-6.29635E-2,-1.1496552E-2],"categories":[],"categories_nodes":[],"categories_segments":[],"categories_sizes":[],"default_left":[0,0,0,0,0,0,0,0,0,0,0,0,0,0,0,0,0,0,0,0,0,0,0,0,0,0,0,0,0,0,0],"id":48,"left_children":[1,3,5,7,9,11,13,15,17,19,21,23,25,27,29,-1,-1,-1,-1,-1,-1,-1,-1,-1,-1,-1,-1,-1,-1,-1,-1],"loss_changes":[9.912667E0,2.6521605E1,4.804692E1,1.5430183E1,2.944386E1,5.9410507E1,2.0063248E1,1.7616549E1,1.05409E1,2.2987373E2,1.2022409E2,1.8253627E2,1.6523705E1,3.5694397E1,1.6541845E1,0E0,0E0,0E0,0E0,0E0,0E0,0E0,0E0,0E0,0E0,0E0,0E0,0E0,0E0,0E0,0E0],"parents":[2147483647,0,0,1,1,2,2,3,3,4,4,5,5,6,6,7,7,8,8,9,9,10,10,11,11,12,12,13,13,14,14],"right_children":[2,4,6,8,10,12,14,16,18,20,22,24,26,28,30,-1,-1,-1,-1,-1,-1,-1,-1,-1,-1,-1,-1,-1,-1,-1,-1],"split_conditions":[1.4E1,1.2E1,1.7E1,7E0,1.3E1,6E0,6E0,4E0,4E0,5E0,7E0,5E0,1.6E1,4E0,1.9E1,-1.6647972E-2,1.0458878E-2,-8.3050305E-5,-3.7761908E-2,-2.1650417E-1,9.92655E-2,1.9937864E-2,-2.293947E-1,4.808872E-2,-1.4385653E-1,6.3328855E-2,1.3880955E-1,-1.1412281E-2,2.7308628E-2,-6.29635E-2,-1.1496552E-2],"split_indices":[1,1,1,0,1,0,0,1,1,0,0,0,1,0,1,0,0,0,0,0,0,0,0,0,0,0,0,0,0,0,0],"split_type":[0,0,0,0,0,0,0,0,0,0,0,0,0,0,0,0,0,0,0,0,0,0,0,0,0,0,0,0,0,0,0],"sum_hessian":[3.707E3,1.927E3,1.78E3,1.655E3,2.72E2,4.47E2,1.333E3,1.356E3,2.99E2,9.2E1,1.8E2,2.93E2,1.54E2,1.038E3,2.95E2,3.1E2,1.046E3,1.35E2,1.64E2,5.2E1,4E1,1.59E2,2.1E1,2.31E2,6.2E1,1.14E2,4E1,6.7E2,3.68E2,8.9E1,2.06E2],"tree_param":{"num_deleted":"0","num_feature":"2","num_nodes":"31","size_leaf_vector":"1"}},{"base_weights":[-7.9117273E-4,-4.5614585E-2,4.7732316E-2,-2.5755905E-3,-3.065192E-1,3.0293545E-1,-3.8008872E-2,3.8283575E-2,-1.8738662E-1,-4.9716505E-1,1.5962847E-1,1.6467248E-1,1.1150901E0,-4.009306E-4,-3.863132E-1,-3.9870516E-4,3.0948414E-2,-2.9267758E-2,1.4403425E-2,-1.9526218E-1,4.956991E-3,8.958105E-2,-5.9894886E-2,8.335723E-2,-1.0348626E-2,5.3863466E-2,1.43939E-1,-1.0272744E-2,1.2793831E-2,2.3131685E-2,-9.88732E-2],"categories":[],"categories_nodes":[],"categories_segments":[],"categories_sizes":[],"default_left":[0,0,0,0,0,0,0,0,0,0,0,0,0,0,0,0,0,0,0,0,0,0,0,0,0,0,0,0,0,0,0],"id":49,"left_children":[1,3,5,7,9,11,13,15,17,19,21,23,25,27,29,-1,-1,-1,-1,-1,-1,-1,-1,-1,-1,-1,-1,-1,-1,-1,-1],"loss_changes":[8.067034E0,2.164886E1,3.8982327E1,1.2512002E1,2.434063E1,5.012271E1,1.7473923E1,1.5557632E1,1.0510841E1,1.5447209E2,4.5212624E1,6.896486E1,1.1376091E1,1.5837811E1,4.859806E1,0E0,0E0,0E0,0E0,0E0,0E0,0E0,0E0,0E0,0E0,0E0,0E0,0E0,0E0,0E0,0E0],"parents":[2147483647,0,0,1,1,2,2,3,3,4,4,5,5,6,6,7,7,8,8,9,9,10,10,11,11,12,12,13,13,14,14],"right_children":[2,4,6,8,10,12,14,16,18,20,22,24,26,28,30,-1,-1,-1,-1,-1,-1,-1,-1,-1,-1,-1,-1,-1,-1,-1,-1],"split_conditions":[1.4E1,1.2E1,1.7E1,7E0,5E0,7E0,7E0,6E0,9E0,1.3E1,1.3E1,3E0,1.5E1,4E0,2E1,-3.9870516E-4,3.0948414E-2,-2.9267758E-2,1.4403425E-2,-1.9526218E-1,4.956991E-3,8.958105E-2,-5.9894886E-2,8.335723E-2,-1.0348626E-2,5.3863466E-2,1.43939E-1,-1.0272744E-2,1.2793831E-2,2.3131685E-2,-9.88732E-2],"split_indices":[1,1,1,0,0,0,0,0,1,1,1,0,1,0,1,0,0,0,0,0,0,0,0,0,0,0,0,0,0,0,0],"split_type":[0,0,0,0,0,0,0,0,0,0,0,0,0,0,0,0,0,0,0,0,0,0,0,0,0,0,0,0,0,0,0],"sum_hessian":[3.707E3,1.927E3,1.78E3,1.655E3,2.72E2,4.47E2,1.333E3,1.356E3,2.99E2,1.93E2,7.9E1,3.83E2,6.4E1,1.204E3,1.29E2,1.174E3,1.82E2,2.27E2,7.2E1,5.2E1,1.41E2,4E1,3.9E1,1.09E2,2.74E2,2.4E1,4E1,6.7E2,5.34E2,6.4E1,6.5E1],"tree_param":{"num_deleted":"0","num_feature":"2","num_nodes":"31","size_leaf_vector":"1"}}]},"name":"gbtree"},"learner_model_param":{"base_score":"[1.3667386E1]","boost_from_average":"1","num_class":"0","num_feature":"2","num_target":"1"},"objective":{"name":"reg:squarederror","reg_loss_param":{"scale_pos_weight":"1"}}},"version":[3,2,0]}